371 300
A61K03800 -0.070491955 -0.027555378 -0.010169288 0.006983431 0.014789637 0.050425746 0.06488532 0.013118553 -0.10773987 -0.005917018 0.06614364 -0.05927834 0.019814275 0.020970775 -0.13125524 -0.12717927 0.097588986 -0.009767358 0.07732709 -0.07781121 0.020219907 -0.15393054 0.07879251 0.041316275 0.017991599 -0.07978295 0.036616523 0.09800753 -0.1183596 0.074467435 -0.07545243 0.06937454 -0.0696905 -0.067471586 -0.10024955 0.010788562 -0.027565978 0.103967294 -0.01256263 -0.019157674 -0.04653772 -0.0013624022 0.045398857 0.12087288 -0.061747734 0.055581197 0.032166958 -0.14298402 -0.013465106 0.030167563 0.034415 0.07317917 0.027411858 -0.00918281 -0.058823667 0.116601825 0.041070666 -0.03378536 -0.18601795 -0.011428419 -0.006737913 0.033289265 0.020235859 -0.15300927 0.00682363 -0.08179334 0.0048910766 0.054239128 0.03307387 -0.017042913 0.07199033 -0.029294573 -0.034965947 0.035896804 0.06806515 0.024971647 -0.054715954 -0.086211875 0.028691782 0.009634095 -0.019424003 0.03514292 0.01696486 -0.041430805 -0.1422945 -0.0343112 -0.109232746 0.06764067 -0.11778869 0.0032872127 -0.13314588 0.01469136 -0.036331706 0.049421687 -0.078017555 0.050851267 0.11290783 -0.0088570295 -0.033986352 -0.04936504 -0.09166977 -0.0046219816 -0.03246493 0.00064033683 0.018160917 0.070153646 0.10678306 0.054793283 -0.08466287 -0.031319518 0.021640418 0.05665152 0.075135015 -0.011927874 0.06483472 -0.042196285 0.07609562 0.024933312 -0.04371744 -0.08731622 0.00014395227 -0.0076800166 -0.0068387697 0.0012282407 0.104576714 0.03595069 0.017176887 0.06384466 0.024876595 -0.040815186 0.030660652 -0.067105345 -0.026373077 -0.002871262 -0.037446067 -0.17175864 -0.027841825 -0.04382667 0.039089877 -0.0037029774 -0.050803762 0.09285467 0.006667812 -0.13822764 0.00030404213 0.046542436 -0.041576304 -0.08132639 0.034562312 0.12343363 -0.064604044 -0.10515948 -0.03589737 0.047137044 0.049996983 0.04598137 0.08606417 -0.090965085 0.011734494 0.0746128 0.038643938 0.011711533 -0.018636605 0.08326851 0.05486457 0.06061196 0.0341124 0.05563921 -0.053074617 -0.024629561 0.04230071 -0.019419996 0.06154812 -0.08886284 0.025631087 -0.12579745 -0.02006663 -0.07521206 0.07097311 -0.029517306 -0.055753157 -0.00067408435 -0.039718248 0.1546476 0.013707833 -0.12216258 0.04975429 0.011549511 -0.021085285 -0.10655471 0.06304662 0.09097619 -0.04291432 0.05673913 -0.02459871 -0.026073286 -0.08860579 -0.0444186 -0.039156575 0.062278423 0.011662525 -0.0070086494 0.032990713 0.06131027 0.08405331 0.060744442 0.106331244 0.013483786 0.013299932 -0.06200848 -0.025320817 -0.040086903 -0.070038155 -0.027548695 -0.010144164 -0.0104818195 -0.00026470306 0.013789194 0.015204836 -0.022202536 0.030792251 0.07725569 0.07760434 0.009804382 0.065920115 0.014901577 -0.16455309 0.05330626 -0.055370156 -0.0018975943 -0.102612235 -0.030798718 -0.057363242 -0.051516112 0.09114823 -0.026240839 -0.0014095047 -0.066178955 -0.0030247406 -0.003525901 -0.060521062 0.101931386 0.08401952 0.060161304 0.08475604 -0.03980399 0.006462974 0.025278047 0.040345043 -0.05560194 0.112127155 0.06857135 -0.0069248416 0.14113092 -0.17293747 -0.007802747 0.029493243 -0.14187889 0.015086019 -0.035627883 0.014764663 0.03877981 -0.06047381 -0.042747375 0.11153616 -0.009344778 -0.034758218 0.07139964 0.06841503 0.057717636 -0.02324169 -0.04770609 -0.09054874 -0.0374277 0.099944286 -0.031992514 0.059662737 -0.034395073 0.054414745 -0.016578233 -0.14110354 0.008829242 0.06269509 0.063452594 0.069657646 0.11896497 -0.031676985 -0.05595185 -0.05546273 0.13963498 -0.028508171 -0.048416894 -0.07108329 0.09497445 -0.018413972 -0.02752735 0.08057878 0.014844557 0.002198225 0.008468944
C07K00710 -0.07254136 -0.026246099 -0.0147089 0.006761174 0.016407438 0.045323253 0.06431056 0.0146568 -0.10528494 -0.002973399 0.07282444 -0.05824853 0.019686406 0.024476266 -0.12932147 -0.124412864 0.09266744 -0.015376877 0.08183391 -0.07468021 0.02113513 -0.1522925 0.075381555 0.039943684 0.018693574 -0.07883657 0.033901513 0.1027386 -0.11880512 0.07557518 -0.07338127 0.06829163 -0.06853953 -0.06606863 -0.09303061 0.0078121973 -0.03184081 0.10467122 -0.010991893 -0.018506844 -0.042786576 0.0014484163 0.046342827 0.121829145 -0.06187004 0.05118565 0.034826625 -0.13750006 -0.017747931 0.025612727 0.031629845 0.0781712 0.025850814 -0.0037926731 -0.051324952 0.1098492 0.03642998 -0.04152155 -0.18550527 -0.013970789 -0.008901319 0.0383239 0.020107128 -0.15204468 0.008922919 -0.078735285 0.0067054955 0.048721228 0.02999987 -0.014739001 0.07594965 -0.031712472 -0.037550163 0.037749194 0.06293554 0.031463563 -0.05982812 -0.09038761 0.02803857 0.0062513226 -0.014930472 0.031208288 0.013787874 -0.03941189 -0.13578582 -0.032203276 -0.11478314 0.06650868 -0.11187604 0.004289347 -0.13361453 0.013617101 -0.03856487 0.047914453 -0.08155912 0.051509008 0.112172514 -0.0076348763 -0.036002032 -0.054373134 -0.09004436 0.0019214195 -0.028031107 -0.0020472866 0.020648688 0.07111439 0.09951872 0.05316907 -0.07983613 -0.030066788 0.024260905 0.05928614 0.07679827 -0.011050469 0.06481125 -0.04574901 0.07572388 0.020259688 -0.04314738 -0.08276064 0.0025439393 -0.0071158735 -0.0027407906 0.0042629763 0.107873105 0.03731061 0.017438373 0.06259634 0.030389175 -0.038694624 0.025245888 -0.06794553 -0.024642212 -0.004672891 -0.033761676 -0.17031233 -0.026453763 -0.04934576 0.041416835 -0.0076056547 -0.048058026 0.08791701 0.0011001203 -0.13624264 -0.003401621 0.046246607 -0.041945037 -0.08069444 0.029311135 0.12022322 -0.064605735 -0.102937266 -0.0335623 0.05023057 0.049078036 0.04537522 0.092834644 -0.08712891 0.012948552 0.07617105 0.03873731 0.006883553 -0.022587046 0.08550257 0.051819608 0.05802797 0.03747097 0.05484547 -0.04938382 -0.020347593 0.043606177 -0.019772945 0.057918217 -0.08959384 0.02781346 -0.1271197 -0.013960627 -0.07701188 0.069852695 -0.031683374 -0.05478425 -0.00474505 -0.0367535 0.15110037 0.009473282 -0.123510346 0.052326605 0.014005122 -0.017044337 -0.10601524 0.059629355 0.084033 -0.03454945 0.058173176 -0.019728571 -0.027206406 -0.087208994 -0.046812885 -0.042411823 0.060108203 0.011011348 -0.010042477 0.032301802 0.05825346 0.085820556 0.059646063 0.10651088 0.012150538 0.015247479 -0.056456324 -0.026054684 -0.035097465 -0.06209916 -0.035230495 -0.015564355 -0.008260544 -0.0040474683 0.010806502 0.016517514 -0.018115193 0.0315208 0.077437624 0.0761353 0.011102736 0.06931763 0.006550557 -0.15924029 0.051516082 -0.05480056 -0.0059543964 -0.1054297 -0.03221612 -0.052126426 -0.050276518 0.08969209 -0.02588957 0.0010501993 -0.066031195 -0.0014738502 -0.002249268 -0.061224252 0.10093388 0.07600602 0.058386087 0.085127205 -0.045423917 0.012868059 0.026527828 0.0371256 -0.057799675 0.11076821 0.06575095 -0.0010405018 0.13824464 -0.16694441 -0.0089343265 0.02581105 -0.13738142 0.010397776 -0.035770606 0.01648758 0.035273027 -0.0632456 -0.04431685 0.10426649 -0.00577175 -0.037696555 0.075561576 0.06723038 0.062370524 -0.015468088 -0.047980774 -0.08933507 -0.030042075 0.094769515 -0.036060378 0.057834018 -0.03272807 0.056489877 -0.013129289 -0.13907103 0.004262144 0.062331505 0.05777832 0.06634251 0.1166798 -0.028057065 -0.059286118 -0.057195906 0.13390975 -0.031247228 -0.05177065 -0.074228056 0.09554098 -0.020632232 -0.027736766 0.072062984 0.008512146 0.007061123 0.010140984
C07K00700 -0.06601716 -0.02394416 -0.0084465975 0.0040222644 0.0151262 0.04531973 0.057707775 0.01354955 -0.09332111 -0.004022986 0.061450355 -0.05316537 0.018977296 0.02458145 -0.1164382 -0.112001926 0.08170998 -0.010438426 0.06611878 -0.069792405 0.01532063 -0.1392371 0.06934899 0.035894297 0.015356449 -0.06934152 0.031074934 0.09170421 -0.10404631 0.06464505 -0.06570403 0.059788484 -0.06378745 -0.057849567 -0.08573344 0.0058216746 -0.032275673 0.09101503 -0.008622722 -0.017196843 -0.041687094 -0.0021557552 0.03899871 0.1097738 -0.056951344 0.04617868 0.027548255 -0.122248486 -0.014539293 0.022017967 0.024821134 0.07046079 0.02304139 -0.0020960383 -0.053602424 0.10299821 0.031265616 -0.034898967 -0.16866086 -0.01402317 -0.0027359757 0.034653973 0.019867156 -0.1362911 0.0034133373 -0.07406988 0.006295967 0.047201734 0.02844106 -0.014235514 0.06425706 -0.030218307 -0.029637486 0.03829519 0.058182877 0.021957075 -0.05241568 -0.07755354 0.024157172 0.008235284 -0.016576642 0.030075034 0.018728066 -0.033865586 -0.12279326 -0.027673272 -0.10170608 0.058591362 -0.104767926 0.0075306306 -0.1133727 0.011806736 -0.030114004 0.041978527 -0.07510814 0.045828972 0.09797511 -0.0072022616 -0.033142433 -0.047840126 -0.07993686 0.0010167371 -0.028114276 0.0039278595 0.013540168 0.061061617 0.094214864 0.04561045 -0.07097978 -0.032184713 0.020390704 0.05410675 0.07305293 -0.013003219 0.050975617 -0.04338435 0.07023627 0.020965222 -0.037344217 -0.07669238 -0.0006998932 -0.0036335904 -0.000874762 0.0018592003 0.09810782 0.02991184 0.020381061 0.05510417 0.026563 -0.03778542 0.028649723 -0.058602266 -0.019135442 -0.0075454805 -0.034805793 -0.15331325 -0.023494283 -0.04099071 0.03761659 -0.008568713 -0.04176623 0.07958466 0.0048439135 -0.11923562 -0.0011943979 0.042130794 -0.03915265 -0.07366225 0.030531665 0.109154366 -0.05492712 -0.09015739 -0.033463158 0.039310165 0.043458592 0.04426796 0.08216467 -0.079978175 0.012036053 0.06432277 0.03393547 0.011723043 -0.018651878 0.0756572 0.047647517 0.053266488 0.033074025 0.05466747 -0.046252117 -0.021934863 0.039673243 -0.019984553 0.05091316 -0.082725435 0.02422385 -0.11501324 -0.016079463 -0.06291182 0.06366412 -0.028156182 -0.052148007 -0.0002665139 -0.036644164 0.1373812 0.010303159 -0.112015255 0.043998588 0.012573035 -0.0124154 -0.090628795 0.057603896 0.07951981 -0.0357695 0.05099996 -0.018862737 -0.0210645 -0.07878732 -0.044816643 -0.037353296 0.051214937 0.012266308 -0.01007029 0.0287861 0.05637421 0.075475395 0.055429157 0.093259424 0.010756571 0.013036969 -0.04799021 -0.018090598 -0.030367494 -0.056347422 -0.026270932 -0.010855351 -0.009142495 -0.0018035716 0.009074936 0.0136187645 -0.020719996 0.025705982 0.06597343 0.062055748 0.007434019 0.05910814 0.011706267 -0.14417434 0.04820817 -0.04568204 -0.001941624 -0.09329622 -0.030292999 -0.0482665 -0.041652035 0.08430476 -0.02254382 2.421797e-06 -0.059577435 -0.004736694 0.00046620914 -0.05552097 0.09042303 0.07450447 0.05072868 0.07710506 -0.041922696 0.005433393 0.022347955 0.036159933 -0.048832744 0.09774628 0.056421105 -0.003475981 0.12443785 -0.15588681 -0.004338382 0.02097013 -0.12666431 0.012749199 -0.031111425 0.016787391 0.033502996 -0.051371552 -0.040788364 0.09784513 -0.0061456314 -0.034993872 0.05954611 0.05933905 0.055666417 -0.019073388 -0.043566443 -0.08518615 -0.033337705 0.088633895 -0.035058968 0.049436852 -0.02985055 0.04821998 -0.0123513285 -0.12429575 0.0037170523 0.057951543 0.053708907 0.059045173 0.10471641 -0.028662328 -0.055689212 -0.04928785 0.12295013 -0.026898744 -0.048431937 -0.06404781 0.08353695 -0.01697202 -0.026632579 0.068922386 0.01071059 0.0018504207 0.010192042
A61K03144 -0.11327396 -0.015535439 -0.029963538 0.016526425 0.022614788 0.051659502 0.11459149 0.049054135 -0.19722125 -0.029248474 0.15727542 -0.083069295 0.04899252 0.03728211 -0.18989043 -0.2166976 0.1611004 -0.024098873 0.14727345 -0.1466729 0.063450046 -0.24152997 0.1240612 0.08672076 0.03506994 -0.12526847 0.053692736 0.1691083 -0.2189675 0.15039398 -0.11812415 0.10614341 -0.111326195 -0.107981525 -0.15155084 0.02778526 -0.07410104 0.18111098 -0.020907896 -0.004874302 -0.06528146 -0.0027596753 0.04425274 0.19768052 -0.09863428 0.051286913 0.075845405 -0.22837466 -0.05117545 0.04315919 0.052090876 0.13212729 0.032978117 -0.008778973 -0.07734323 0.16848037 0.06475979 -0.059298575 -0.29986018 -0.04164498 -0.031120548 0.035432264 0.026314728 -0.25931984 0.0133623555 -0.117080554 0.030790381 0.07498955 0.0790941 0.010016848 0.13229181 -0.045834776 -0.047614183 0.05195137 0.121234134 0.049922347 -0.09497899 -0.17351992 0.0788738 0.027050989 -0.012013608 0.067973495 0.0070470097 -0.07075289 -0.23546109 -0.021219326 -0.21238689 0.10275058 -0.17322397 -0.0046603763 -0.22520737 0.028827626 -0.048710924 0.08546559 -0.16169891 0.10365308 0.22288336 -0.0049257814 -0.06254837 -0.10768139 -0.15105358 0.03335676 -0.032632418 0.016430246 0.030417314 0.12295475 0.15278062 0.1056495 -0.12808762 -0.051583774 0.03762897 0.09491978 0.13676083 -0.020612229 0.091028094 -0.07565107 0.10320543 0.018419897 -0.062398653 -0.16365585 0.0036145013 -0.016246313 0.0057844194 0.008892376 0.17199405 0.05555543 0.04181803 0.08988738 0.06435856 -0.058340747 0.0404539 -0.122373655 -0.036342904 -0.0043433164 -0.056137796 -0.29224414 -0.07187131 -0.0896854 0.07258538 -0.02835287 -0.08200671 0.12681589 -0.0118664615 -0.23483704 -0.013092385 0.06724216 -0.051603924 -0.12074415 0.038662914 0.20768572 -0.10767018 -0.18296333 -0.011048436 0.10454272 0.06824378 0.086188205 0.14246857 -0.14313914 0.020209182 0.1443511 0.09125335 0.021357432 -0.027513787 0.16422436 0.08542113 0.09421175 0.07948274 0.0936545 -0.0779999 -0.030842174 0.08027223 -0.032998446 0.10840934 -0.15326087 0.05826025 -0.22371635 -0.024669431 -0.12908721 0.11644506 -0.060508065 -0.073962785 -0.0177373 -0.07350724 0.24283002 0.034854807 -0.21269968 0.079347104 0.030276105 -0.03279122 -0.15219083 0.09197984 0.13572788 -0.048970066 0.08488164 -0.03028606 -0.040848628 -0.1325859 -0.09807316 -0.08033906 0.1078448 0.019603211 0.006549732 0.038290486 0.09994683 0.13143802 0.097587 0.18594047 -0.0014378137 0.053373493 -0.09800069 -0.02717352 -0.070567615 -0.10344138 -0.06428692 -0.023840345 -9.698815e-05 -0.006359614 0.02061456 0.043495174 -0.02955834 0.059760537 0.14928758 0.12264567 0.022366842 0.12074765 0.008796039 -0.283044 0.08031326 -0.07205534 -0.0067451373 -0.16002756 -0.067135476 -0.06773977 -0.103241265 0.16242634 -0.041678134 -0.0017341251 -0.1093368 0.014790809 0.012090893 -0.100456506 0.15905622 0.1193312 0.080361076 0.12262497 -0.08031179 0.026908819 0.044130757 0.06867964 -0.08292831 0.19732007 0.08932386 -0.028459959 0.21141224 -0.29080808 -0.017706603 0.03681091 -0.23647423 -0.009087428 -0.03686478 0.039235123 0.071307294 -0.10034369 -0.086573526 0.17523278 -0.024844926 -0.03949964 0.12873629 0.13013266 0.08613992 -0.009096652 -0.071189135 -0.12837304 -0.06385805 0.14863327 -0.07531159 0.093422055 -0.048838727 0.0857939 -0.024747245 -0.23558263 0.011497473 0.07820663 0.07474635 0.09296256 0.19980884 -0.044887148 -0.12747185 -0.07976617 0.22421919 -0.068155825 -0.10497127 -0.11542959 0.14777288 -0.029724428 -0.039955202 0.11015883 0.010622391 0.03561125 0.026752839
C07K01400 -0.08209984 -0.02847749 -0.011962609 0.0010372179 0.015786024 0.049275342 0.08006824 0.025113132 -0.123805635 -0.006823108 0.08851627 -0.059660576 0.03437979 0.023101881 -0.14204282 -0.14835547 0.107770406 -0.014573689 0.09633236 -0.090014055 0.033105705 -0.16659366 0.088185325 0.04840561 0.019432344 -0.095645964 0.03862406 0.113392346 -0.14775242 0.08834262 -0.07690802 0.068811394 -0.072869934 -0.07284412 -0.11011766 0.012793668 -0.039812516 0.12508097 -0.018844008 -0.012791793 -0.042171635 -0.0009132408 0.041386865 0.12910733 -0.06273285 0.055362195 0.0430686 -0.165064 -0.027714636 0.034063473 0.03940517 0.081908986 0.02353959 -0.0031498808 -0.06328991 0.122563355 0.051393237 -0.04011817 -0.20739137 -0.026538303 -0.01586794 0.0361725 0.017681351 -0.17592184 0.005257377 -0.092403784 0.01273037 0.05432931 0.044390887 -0.011380267 0.08418464 -0.04345857 -0.037572116 0.04029523 0.085484974 0.0309541 -0.0636875 -0.112913296 0.040878084 0.009166025 -0.020546718 0.04751867 0.019807054 -0.051935207 -0.16733852 -0.026160263 -0.13296539 0.06625851 -0.13252881 0.0027026355 -0.15058105 0.014672323 -0.03699929 0.06100519 -0.096519396 0.062220562 0.1381274 -0.006518857 -0.04117677 -0.06441727 -0.10303614 0.006694612 -0.028744126 0.0060938667 0.018924702 0.089289665 0.118125185 0.061838526 -0.09971236 -0.036944017 0.028422216 0.06668046 0.08991738 -0.011869226 0.07729791 -0.04932553 0.07747912 0.025383435 -0.04990916 -0.10140597 -0.0018286263 -0.0080710435 -0.007447452 -0.0025926514 0.1218526 0.034882743 0.020492647 0.06825968 0.040559184 -0.040038384 0.03081184 -0.07281374 -0.029608607 0.0025536967 -0.041769434 -0.19014591 -0.040895686 -0.056559827 0.048121676 -0.0055089723 -0.059675675 0.09727442 -0.00041097912 -0.15698001 -0.003415706 0.049111195 -0.03852268 -0.09057347 0.026188416 0.14604045 -0.07837977 -0.124075 -0.024236646 0.067383505 0.056922 0.05321059 0.102289125 -0.10076527 0.011083853 0.09201455 0.049729206 0.01680667 -0.020914502 0.105441265 0.048138857 0.06791832 0.046062957 0.070468396 -0.05809161 -0.024818484 0.04876397 -0.019603183 0.074591056 -0.10479121 0.024562446 -0.14632548 -0.02019516 -0.086673155 0.07936212 -0.037476886 -0.05256363 -0.007720093 -0.04968411 0.16850877 0.021654857 -0.1403613 0.058583904 0.0149708465 -0.030760087 -0.11880427 0.0710014 0.10464648 -0.040973946 0.06417511 -0.030675866 -0.021501245 -0.09744758 -0.049452502 -0.054737177 0.07632281 0.015391365 0.0023380464 0.026953742 0.06998154 0.0879174 0.068183884 0.12735361 0.010935762 0.018112749 -0.0713932 -0.02925366 -0.050056834 -0.08303555 -0.03890791 -0.010440107 -0.008333062 -0.0062270523 0.011579256 0.023131205 -0.018717092 0.033973183 0.09565887 0.086050384 0.018634971 0.082530744 0.013005126 -0.19188844 0.06095247 -0.059486177 -0.0013384199 -0.12062139 -0.040535487 -0.059700154 -0.055862635 0.107019685 -0.03518144 -0.00031433252 -0.07500407 -0.00013621978 -0.000896548 -0.07057111 0.10879502 0.09412914 0.061677407 0.09915301 -0.046992444 0.008693951 0.029817428 0.054767698 -0.06087308 0.12541373 0.07095449 -0.009936876 0.16056713 -0.19592167 -0.014232024 0.029671468 -0.15917802 0.0107838 -0.031549435 0.018458765 0.03936179 -0.06067516 -0.056933425 0.124841265 -0.0077626263 -0.034945607 0.090358324 0.08279165 0.05524925 -0.01955826 -0.04988541 -0.09552493 -0.04614931 0.10789809 -0.04817248 0.061980747 -0.030973904 0.058109403 -0.013117953 -0.16344708 0.00784951 0.066684455 0.06185848 0.075076975 0.13607332 -0.03255494 -0.07511483 -0.0657496 0.15798847 -0.035940852 -0.060614113 -0.0801311 0.09983928 -0.01930595 -0.031442486 0.088842705 0.008916591 0.0053200447 0.015210094
A61K03140 -0.12593248 -0.014603906 -0.030255517 0.008574406 0.017758168 0.06084166 0.09843077 0.042739455 -0.17739053 -0.02032627 0.15248546 -0.06999682 0.048438497 0.053461008 -0.18947972 -0.19672573 0.1556741 -0.02306248 0.12499019 -0.10711945 0.04783249 -0.23404306 0.1160151 0.071275674 0.026344799 -0.12605134 0.04437326 0.16158038 -0.21301365 0.13243702 -0.09583237 0.09636311 -0.108120315 -0.10747265 -0.15028305 0.016978955 -0.054184362 0.18635096 -0.017367627 0.008548812 -0.06808712 0.011156284 0.053823795 0.18986155 -0.08460589 0.06935005 0.062134333 -0.21681611 -0.03451798 0.042400472 0.054797243 0.11295413 0.029944079 -0.013018367 -0.08100674 0.16066909 0.079981625 -0.062171225 -0.29075336 -0.04572278 -0.036697987 0.0335974 0.023035027 -0.2262938 0.0132588055 -0.12894723 0.030592997 0.06017841 0.059503067 0.002635313 0.1201357 -0.048475713 -0.044993218 0.07440132 0.11072817 0.069294974 -0.084228896 -0.17217919 0.059590258 0.030818863 0.0026454516 0.06252899 0.019081 -0.07803175 -0.2324567 -0.02820346 -0.1781559 0.09017615 -0.1718092 0.010483331 -0.21027038 0.042235956 -0.064768314 0.08467912 -0.14256646 0.09623325 0.19261429 -0.018969461 -0.05332439 -0.08049432 -0.15433481 0.0211236 -0.04923861 0.015435411 0.024192492 0.13114867 0.14452322 0.08188921 -0.13015108 -0.060342513 0.03444255 0.09835903 0.12563087 -0.025108522 0.09421878 -0.07159361 0.089160524 0.028018733 -0.06261951 -0.14648204 -0.017288253 -0.010063131 -0.010336584 -0.0007461775 0.16935733 0.04598465 0.0128709925 0.07548447 0.05483874 -0.050666098 0.048066247 -0.10032983 -0.03402571 -0.009291101 -0.040962856 -0.27470964 -0.053744074 -0.08991419 0.06956699 -0.017741581 -0.055502206 0.11799267 -0.0075180535 -0.2234855 0.0074731796 0.08167858 -0.05345066 -0.13146487 0.032333296 0.18320374 -0.103745714 -0.18082729 -0.028277827 0.11285236 0.07770717 0.089578524 0.14670594 -0.13806523 0.022498788 0.1276383 0.06730429 0.018098835 -0.037959944 0.14640056 0.06858136 0.08563655 0.085153766 0.07998124 -0.07194435 -0.014759215 0.06993841 -0.034734193 0.10009037 -0.13482085 0.047023624 -0.21693029 -0.019143803 -0.10341038 0.1041014 -0.046048965 -0.069007725 -0.029512208 -0.05975211 0.22515772 0.03130279 -0.20075059 0.09020622 0.029141882 -0.045476124 -0.14918299 0.0981041 0.13032618 -0.04942605 0.090289734 -0.03488088 -0.028341826 -0.106118545 -0.055883814 -0.08638744 0.10031296 0.028944615 -0.008913945 0.050954983 0.063406214 0.12363132 0.08916841 0.1635848 0.011450768 0.036172148 -0.08848489 -0.031534273 -0.058488432 -0.11182357 -0.047271997 -0.02376676 -0.003375854 -0.014108261 0.021357536 0.040578 -0.0206202 0.06748371 0.12776315 0.12115737 0.031427596 0.11501728 -0.0034076676 -0.24363272 0.08455349 -0.0719143 -0.012513557 -0.15611456 -0.06704354 -0.055386264 -0.092200294 0.15762453 -0.047567487 0.0049370765 -0.096340716 0.019692454 0.0057641133 -0.10242674 0.13469538 0.12211713 0.096301086 0.12808417 -0.07944089 0.01639128 0.056118328 0.08397891 -0.07568799 0.1919267 0.09402798 -0.018631127 0.21284993 -0.26116377 -0.019710379 0.03736797 -0.22858502 -0.009780511 -0.057448987 0.04762969 0.049394548 -0.096481085 -0.08654842 0.16045776 -0.015313627 -0.03421272 0.13268384 0.11374367 0.07993577 -0.0076620383 -0.061517984 -0.13890965 -0.06641075 0.15637709 -0.067249 0.07827665 -0.035169534 0.06886356 -0.010159978 -0.2129115 0.0073758964 0.074274935 0.087839894 0.09794156 0.20245384 -0.050707325 -0.120657064 -0.09013032 0.19525932 -0.06516284 -0.09933417 -0.10768809 0.15174188 -0.026907263 -0.04095703 0.10649464 0.018537937 0.009307488 0.011328549
A61K031405 -0.11589161 -0.019688398 -0.02817743 0.0032690887 0.018860407 0.06366836 0.098529615 0.038095526 -0.16936038 -0.016253766 0.14323278 -0.06263957 0.042315543 0.046900272 -0.17781392 -0.18700163 0.1481827 -0.025768062 0.12139359 -0.11641803 0.045415778 -0.22237651 0.11306205 0.063529685 0.02449713 -0.12638228 0.04537509 0.15000068 -0.20471376 0.12814534 -0.09325151 0.095580466 -0.10329974 -0.096049175 -0.13946812 0.01784172 -0.045005627 0.17647997 -0.018106703 0.007833022 -0.062366486 0.009173691 0.05384234 0.18157035 -0.090307236 0.06159193 0.06610132 -0.20856959 -0.031320892 0.048131242 0.051588457 0.10810211 0.029599559 -0.0110760275 -0.07375366 0.16005571 0.07373408 -0.055064514 -0.28545702 -0.044153348 -0.03280955 0.035700295 0.019036088 -0.22454913 0.00514405 -0.12354904 0.028372234 0.059273407 0.06581793 0.012116435 0.120483935 -0.051590435 -0.04696588 0.07242663 0.11220778 0.06481407 -0.08899773 -0.16709125 0.05863626 0.024778768 -0.0021680014 0.055060763 0.022100119 -0.077168226 -0.21858813 -0.031712227 -0.18507643 0.087307274 -0.16260324 0.002371514 -0.19943586 0.038640384 -0.057073437 0.08211205 -0.1414308 0.09267823 0.18656243 -0.010925014 -0.052457243 -0.07725437 -0.14906459 0.023254683 -0.043005124 0.009448105 0.025507985 0.121720046 0.13984892 0.08414375 -0.13064496 -0.06013444 0.038741536 0.094055764 0.12208251 -0.025448704 0.09319483 -0.07642116 0.0883464 0.023016294 -0.059953272 -0.14638786 -0.018096866 -0.013275061 -0.015344906 0.005344073 0.16477725 0.047867615 0.017330138 0.07356241 0.05931387 -0.043425396 0.04864071 -0.100363575 -0.038402062 -0.0062623173 -0.040895827 -0.25906113 -0.0569151 -0.09033108 0.06393109 -0.011134061 -0.0571582 0.11109402 -0.011568543 -0.21694182 0.0077691763 0.07569454 -0.049703535 -0.12661985 0.033832345 0.17715687 -0.09607323 -0.16789429 -0.028542517 0.112222 0.07579222 0.08259414 0.14616947 -0.1292257 0.015911018 0.12123599 0.06560876 0.021547459 -0.0343366 0.14604719 0.06338983 0.08167208 0.082172036 0.080439426 -0.07041319 -0.012993897 0.06757158 -0.029670473 0.10153243 -0.13723448 0.040718354 -0.2091904 -0.017900413 -0.108866654 0.1047441 -0.053250432 -0.07226468 -0.023253314 -0.06541513 0.21848029 0.028121209 -0.19564055 0.08366071 0.02841614 -0.04489664 -0.15170237 0.096530706 0.12731333 -0.04602942 0.09050802 -0.040105995 -0.031215569 -0.1061049 -0.056907732 -0.082407214 0.098508604 0.023137072 -0.003783738 0.041955 0.06683718 0.11747892 0.09833347 0.16201416 0.0065657455 0.039827354 -0.08510142 -0.035211235 -0.061942585 -0.1040745 -0.05552649 -0.025161706 -0.003883628 -0.010305284 0.022826148 0.032180995 -0.023587992 0.06745265 0.117246516 0.11617352 0.021633543 0.1053899 0.0031181602 -0.23035538 0.08009245 -0.06469097 -0.00891063 -0.15073518 -0.06834215 -0.05603488 -0.08696033 0.1524486 -0.049520764 0.0042560822 -0.0965504 0.020402944 0.0010261188 -0.09399067 0.13248985 0.11937772 0.09578887 0.12379817 -0.07461289 0.021607371 0.051253643 0.0782488 -0.081300505 0.18262048 0.090320244 -0.021203952 0.2016694 -0.25163692 -0.028163051 0.034353375 -0.2191945 -0.009692569 -0.045590643 0.042728018 0.047463167 -0.091548555 -0.07706216 0.1545329 -0.019657645 -0.032617226 0.12537706 0.11540172 0.07963163 -0.0047225975 -0.05754182 -0.13444702 -0.06064769 0.14738035 -0.05916574 0.07659691 -0.03490313 0.070896454 -0.0010450799 -0.21055375 0.019830378 0.074304745 0.08604555 0.09260008 0.18864751 -0.04534644 -0.1169795 -0.08390625 0.19681057 -0.059737217 -0.09250317 -0.10416483 0.1404678 -0.026041875 -0.04070942 0.10231995 0.0139716985 0.012344825 0.0075141494
A61K03174 -0.13416564 -0.033376455 -0.0253618 0.011797733 0.011647184 0.10476338 0.13936532 0.049396977 -0.21603863 -0.035835166 0.20278561 -0.07149897 0.047556292 0.042814426 -0.232774 -0.2558955 0.18633093 -0.00036888168 0.16739689 -0.16271354 0.06385262 -0.28542495 0.15561968 0.08260039 0.024366518 -0.1504717 0.043331116 0.18375419 -0.25332916 0.16432153 -0.12460217 0.1343217 -0.13404667 -0.12441258 -0.191716 0.014367783 -0.06479004 0.20534854 -0.028369691 -0.0075049195 -0.051060863 0.0020631587 0.04514574 0.22781955 -0.11251021 0.077603735 0.08997681 -0.27648777 -0.037757564 0.061605405 0.06702866 0.13495559 0.047546733 -0.017958013 -0.09959028 0.18918853 0.08811231 -0.08374346 -0.38250753 -0.039755985 -0.030796928 0.041929923 0.04006448 -0.28271407 0.012444803 -0.16884273 0.016118001 0.09438834 0.058903303 0.0014645576 0.17491412 -0.058004066 -0.044933412 0.053851042 0.14899386 0.066677295 -0.09268427 -0.19203265 0.07470401 0.018759225 -0.009613855 0.08602006 0.031891745 -0.10774121 -0.27551776 -0.023729855 -0.25026265 0.13492492 -0.22244442 -0.01475794 -0.25987738 0.049172744 -0.07165215 0.09638917 -0.1832161 0.12842645 0.2687025 -0.013995671 -0.057488102 -0.110738195 -0.19261916 0.02704893 -0.046740446 0.025512306 0.052831028 0.18593644 0.20042321 0.098884374 -0.17046876 -0.055926744 0.026096929 0.12620163 0.14955987 -0.03864999 0.1167186 -0.08848988 0.12970647 0.030410927 -0.08324895 -0.17587726 -0.00463616 -0.0043879324 -0.017194342 0.02915711 0.21207342 0.067235775 0.020936945 0.119363315 0.07180251 -0.06474544 0.059852976 -0.1435166 -0.02231751 0.010812315 -0.0647167 -0.31260133 -0.059312116 -0.10768878 0.086993985 -0.0018573898 -0.09336659 0.1627555 -0.020772055 -0.2756466 0.010474754 0.10623858 -0.031382617 -0.13389304 0.056424778 0.24060726 -0.12305922 -0.21486655 -0.016880803 0.13358799 0.10878689 0.10686653 0.19256184 -0.1857579 -0.013426878 0.14464568 0.089531764 0.035262797 -0.04095505 0.18605356 0.10945728 0.12341336 0.08577509 0.13294706 -0.09899494 -0.039018862 0.100482546 -0.064463854 0.11950511 -0.1665153 0.057566218 -0.2541585 -0.043263976 -0.14728451 0.14459863 -0.05097156 -0.10154362 -0.02029512 -0.08027166 0.2877973 0.0061637983 -0.263072 0.07430979 0.03388504 -0.063752115 -0.1994352 0.11886654 0.1776061 -0.06116533 0.09453669 -0.045810565 -0.042883877 -0.17288189 -0.07785999 -0.12759136 0.109169975 0.025777988 -0.013301313 0.03273102 0.092940055 0.16433506 0.115794025 0.23599245 -0.0054426366 0.052698843 -0.11188531 -0.046319112 -0.07191886 -0.13636772 -0.06612941 -0.026615808 -0.013774641 0.0194319 0.052688178 0.015775684 -0.050097726 0.051898688 0.15442125 0.15201508 0.03695368 0.11562917 0.019474735 -0.3201814 0.11351821 -0.099807695 0.0045787147 -0.19761848 -0.057192445 -0.08619034 -0.10764738 0.21319546 -0.040207844 -0.021852126 -0.13906243 0.029447878 -0.020248014 -0.0938979 0.17788377 0.16118404 0.11079448 0.16743109 -0.094196394 0.04328052 0.057674885 0.10359339 -0.12309522 0.20508417 0.10634955 -0.0019711724 0.27097973 -0.33793098 -0.03126567 0.05886072 -0.27320313 0.008592559 -0.034489967 0.06351536 0.059268508 -0.09963277 -0.11444704 0.212624 -0.03612983 -0.056674358 0.1654425 0.16147923 0.09722132 -0.010183014 -0.08295313 -0.1489261 -0.062306527 0.195914 -0.07420167 0.10005839 -0.055131692 0.1101481 -0.010196934 -0.28633183 0.0058659017 0.12104125 0.10252992 0.124629006 0.25441363 -0.0561794 -0.14260913 -0.11948337 0.26623452 -0.078840785 -0.119973734 -0.1433284 0.19380397 -0.03286719 -0.063471384 0.14228238 0.009086777 0.01093179 0.025337132
A61K04700 -0.13924766 -0.030903444 -0.0310853 -0.012897188 0.01262213 0.0819347 0.13684894 0.053151026 -0.20733868 -0.023661844 0.17960134 -0.08016025 0.051708225 0.06346208 -0.22245425 -0.2413331 0.17767578 -0.019638456 0.15888222 -0.16573994 0.06341889 -0.27543193 0.14516824 0.08565079 0.03621125 -0.15654576 0.0583422 0.19762984 -0.26951152 0.13922961 -0.13294892 0.11182173 -0.12773773 -0.12370661 -0.17295222 0.02507944 -0.062545754 0.22587766 -0.03365479 0.0005834271 -0.05742949 0.01925222 0.063931726 0.22871177 -0.11800444 0.08243333 0.086559296 -0.27196583 -0.05067225 0.052385073 0.058034413 0.13121536 0.041843455 -0.0204458 -0.11632281 0.20392853 0.08487495 -0.061878696 -0.35948196 -0.06286602 -0.03880236 0.048415367 0.029278424 -0.28998178 0.0038779697 -0.16738857 0.019923367 0.09413595 0.068946935 0.020535331 0.13225828 -0.06994924 -0.06639303 0.074493304 0.13946629 0.061297983 -0.09099037 -0.19893873 0.08301265 0.0048236325 0.004616863 0.078130655 0.02979624 -0.09403588 -0.27780613 -0.039910514 -0.24010625 0.11715438 -0.21707734 -0.0009586532 -0.25047365 0.03334784 -0.058950532 0.10175732 -0.17840289 0.13451892 0.26436943 -0.016137563 -0.057288565 -0.10808709 -0.19475214 0.026730504 -0.040164046 0.02442667 0.031009268 0.17271745 0.1883981 0.09503082 -0.18098454 -0.06327738 0.036238603 0.09869144 0.16354297 -0.028631229 0.123592965 -0.09706935 0.13359313 0.028739586 -0.07525878 -0.17517217 -0.016393453 -0.021029068 -0.007606672 0.004934901 0.2018379 0.051909637 0.042365283 0.110512786 0.05173275 -0.067885965 0.053372182 -0.12646599 -0.05270553 0.008852329 -0.047844246 -0.3169212 -0.08640536 -0.11182433 0.089483134 -0.029805845 -0.06394947 0.14549203 -0.021026202 -0.28482893 0.0104258405 0.09426582 -0.067030534 -0.13627397 0.04361182 0.2414905 -0.13166739 -0.20396775 -0.02199683 0.11905042 0.086813115 0.09705888 0.1890089 -0.15093808 0.018879486 0.15964633 0.085130215 0.0322892 -0.031648904 0.18439166 0.09467263 0.10777161 0.099910334 0.12036578 -0.09690995 -0.03657386 0.08749406 -0.050664853 0.14343192 -0.1653144 0.056393184 -0.2618392 -0.0265718 -0.14637533 0.13046019 -0.053917073 -0.09804981 -0.034609832 -0.07166562 0.28736886 0.028985614 -0.24132837 0.11084443 0.019355126 -0.038458474 -0.19812366 0.1355728 0.14796124 -0.070344806 0.10962395 -0.050885096 -0.05192328 -0.14293407 -0.09102236 -0.11215435 0.12247515 0.02450587 -0.0016278835 0.032346193 0.11388381 0.1407089 0.14247552 0.2105391 0.005288062 0.045763277 -0.10193636 -0.050276246 -0.07504357 -0.14959921 -0.06307178 -0.030583657 -0.012205727 -0.004530359 0.008035785 0.053971123 -0.02468457 0.07669118 0.14756483 0.1530979 0.03819605 0.13893308 -0.006359371 -0.3169676 0.094835766 -0.09606687 -0.017014157 -0.17178853 -0.07113627 -0.07092421 -0.11216725 0.18498024 -0.066077806 0.0026955577 -0.10867489 0.028129846 -0.00058829953 -0.10943862 0.17756417 0.14929882 0.12270455 0.14571525 -0.08429867 0.026319593 0.053285968 0.087700546 -0.095250465 0.2091569 0.107280135 -0.02419418 0.27412444 -0.32075995 -0.014770749 0.052356523 -0.2769648 -0.012764332 -0.077196866 0.060356185 0.070413604 -0.11508034 -0.10537847 0.2172293 -0.01583096 -0.048047073 0.16551644 0.1497458 0.12640542 0.0051187617 -0.06803832 -0.16500834 -0.07309059 0.17066352 -0.084924676 0.0927959 -0.06368576 0.09408858 -0.012813044 -0.27275527 0.0278135 0.11916619 0.10678571 0.11742542 0.24416414 -0.06428131 -0.14995104 -0.11752076 0.2565576 -0.066220134 -0.11282997 -0.11809772 0.15841536 -0.012277478 -0.052198865 0.1533979 0.017638698 0.0055736145 0.021940058
A61P00304 -0.16157798 -0.06948337 -0.023180483 -0.006442658 0.025018176 0.06938864 0.1512013 0.047703527 -0.251528 -0.037435163 0.19800626 -0.079724 0.081863835 0.0534851 -0.25179186 -0.27442598 0.17616417 -0.006372907 0.18605402 -0.14475027 0.08496952 -0.34078652 0.16994023 0.09185364 0.02438324 -0.18892649 0.06883522 0.21796292 -0.28754887 0.1890958 -0.15373394 0.1388497 -0.1570144 -0.112919375 -0.17835031 0.031457007 -0.08982476 0.22611497 -0.058113184 -0.007232374 -0.07728216 0.016165132 0.06948565 0.2598751 -0.10471857 0.06744615 0.08517039 -0.32504138 -0.075489454 0.082529336 0.06441373 0.15146987 0.061335284 0.007559409 -0.09663736 0.21585852 0.09758864 -0.103737295 -0.39025986 -0.047023512 -0.024966853 0.08302032 0.040077563 -0.33575007 0.0066669234 -0.15283023 -0.00017305944 0.07882004 0.081707634 0.0011166625 0.15869114 -0.10691502 -0.06837427 0.092200354 0.1566136 0.073310085 -0.1323087 -0.2284071 0.061724663 0.037930053 0.0002618119 0.07593665 0.021257862 -0.12746301 -0.29150918 -0.024854429 -0.27430475 0.12784752 -0.22555327 -0.012790163 -0.27587414 0.009334717 -0.08355602 0.08708105 -0.19837156 0.13987863 0.27369392 -0.022260452 -0.08122962 -0.12592982 -0.19164033 0.017246485 -0.07069651 0.0008246649 0.055423114 0.18561517 0.22690524 0.11885256 -0.20358336 -0.07583057 0.05047046 0.12070307 0.18951777 -0.04099212 0.15571521 -0.09255327 0.14035146 0.046455264 -0.09042793 -0.19839455 -0.022566037 -0.015744884 -0.01805131 0.010030983 0.23611332 0.09636621 0.008852046 0.11591804 0.10331848 -0.0775233 0.077924676 -0.1327027 -0.05198035 -0.0064616827 -0.08922734 -0.3739862 -0.08695135 -0.1451605 0.08556084 -0.009936431 -0.09674964 0.16208631 -0.035324357 -0.3069883 -0.012634706 0.09081861 -0.07944791 -0.1522449 0.015748829 0.26423106 -0.14319599 -0.26180142 -0.04470405 0.16884741 0.1042661 0.11827149 0.22805701 -0.17752855 0.024357082 0.19798115 0.08571817 0.006226001 -0.044054803 0.20320484 0.08851344 0.13032661 0.099424854 0.13063207 -0.0844776 -0.054830592 0.09024975 -0.044295453 0.12794878 -0.21412285 0.058239162 -0.27169064 -0.049750518 -0.14953971 0.15742655 -0.09634139 -0.08471845 -0.032873422 -0.10139164 0.32191315 0.041227818 -0.26238063 0.09691097 0.017002342 -0.07074747 -0.24465148 0.14582928 0.18834259 -0.036808655 0.14593631 -0.03277599 -0.035474773 -0.17968291 -0.102422275 -0.081953846 0.1454562 0.023748271 0.0034811865 0.052103177 0.1281731 0.16634504 0.14703478 0.25302303 0.024955504 0.060168184 -0.1490262 -0.06360157 -0.07273625 -0.14176755 -0.10084767 -0.014210074 -0.0007887294 0.002843388 0.010097712 0.028131282 -0.041944176 0.07285062 0.17904693 0.16175854 0.047625225 0.17140017 0.00045565848 -0.38275522 0.09955631 -0.1224454 0.009122138 -0.21786419 -0.08755408 -0.093395256 -0.09471277 0.19380574 -0.057336986 0.029411567 -0.12770738 0.027198197 -0.011987653 -0.09581108 0.16929527 0.18357971 0.14708126 0.19061111 -0.124672115 0.040897496 0.07757205 0.123129964 -0.15013501 0.24865957 0.11266398 -0.01115454 0.30411735 -0.39449254 -0.029846348 0.032493737 -0.32847235 -0.015759379 -0.07536395 0.038325254 0.057185512 -0.13029382 -0.12865776 0.24757965 -0.031365857 -0.054743305 0.17305742 0.18238626 0.100451164 -0.0145178735 -0.10332249 -0.16318248 -0.06506028 0.21439111 -0.089235514 0.12172656 -0.04859818 0.0989807 -0.03147413 -0.30176565 0.01796024 0.12691057 0.11177299 0.11348366 0.27954704 -0.06998256 -0.17042497 -0.12805219 0.28282422 -0.059711743 -0.12394985 -0.16194104 0.1772523 -0.021147626 -0.052191284 0.16315159 0.020473309 0.036937725 0.02254429
A61K031415 -0.14544421 -0.033095013 -0.0358048 0.0033871836 0.026915114 0.054129682 0.13592036 0.034743145 -0.2150534 -0.017172802 0.16851552 -0.088769995 0.06263083 0.042000577 -0.22643375 -0.2480706 0.1719101 -0.024017077 0.15883327 -0.1382684 0.06494201 -0.28608233 0.14202417 0.08975917 0.01167506 -0.16376595 0.06735235 0.19155194 -0.25459984 0.17167735 -0.12545541 0.11976173 -0.12294211 -0.09860249 -0.16581884 0.027331494 -0.072232075 0.20118117 -0.033525255 -0.0013386153 -0.047079887 0.008560405 0.06457773 0.21377225 -0.10891217 0.07138976 0.07682476 -0.28353283 -0.06692165 0.057764146 0.06433016 0.12703907 0.039413333 -0.009877868 -0.08794443 0.19566569 0.080900095 -0.07862236 -0.3381939 -0.042312335 -0.021229342 0.059159122 0.03076196 -0.29448095 -0.0028771036 -0.1430844 0.012815244 0.08091052 0.06722285 0.002419233 0.13392901 -0.07454677 -0.05069705 0.085991204 0.1432515 0.066509426 -0.10640411 -0.20205072 0.05500357 0.03915426 -0.0058929473 0.070087545 0.021988764 -0.10162763 -0.2602668 -0.030214684 -0.23318444 0.10887583 -0.20585127 -0.0024813819 -0.24806301 0.023959475 -0.07813131 0.08711529 -0.16841272 0.12312247 0.23912947 -0.013091235 -0.06781175 -0.105102494 -0.18620029 0.01888619 -0.059727367 0.007205644 0.038902387 0.16297634 0.18602513 0.09970071 -0.1605563 -0.06914068 0.044898745 0.11784963 0.15393414 -0.035868723 0.12790307 -0.08340497 0.12379679 0.024575518 -0.0864919 -0.1676175 -0.017541455 -0.015374825 -0.008410976 0.017093275 0.19472857 0.07995386 0.024630116 0.109687336 0.07429993 -0.056923553 0.06770136 -0.123023465 -0.046731777 -0.00554813 -0.0683924 -0.31909096 -0.07214058 -0.1126646 0.07719275 -0.017455172 -0.077012435 0.14253882 -0.024660084 -0.27329266 -0.0021243067 0.08003085 -0.061939817 -0.13521048 0.031830337 0.23580186 -0.13756028 -0.21707526 -0.037322428 0.13593149 0.089528844 0.09290871 0.18466555 -0.15007432 0.021578316 0.16013557 0.07638968 0.011992997 -0.032526154 0.19042124 0.07992814 0.10647625 0.09130249 0.110584624 -0.08545803 -0.04962296 0.08427211 -0.053739242 0.109413944 -0.18991157 0.05733413 -0.25012353 -0.029252678 -0.13235447 0.13361123 -0.07121825 -0.07387055 -0.036588494 -0.087415375 0.28375295 0.026545377 -0.23229304 0.0872547 0.022764044 -0.056973834 -0.19337198 0.13003543 0.16838168 -0.0536193 0.10888232 -0.030116204 -0.03633974 -0.1545586 -0.08806425 -0.09828662 0.12475687 0.02961813 0.0006214492 0.048797127 0.11025353 0.14634126 0.11747343 0.2142089 0.013934443 0.047671054 -0.11527386 -0.054646254 -0.063902505 -0.13364217 -0.06537086 -0.021937082 -0.008932766 0.013881158 0.015542297 0.032595534 -0.03969901 0.07314006 0.15590508 0.14112975 0.029864162 0.13626745 0.0020753134 -0.3201252 0.09990344 -0.107567646 -0.0051831133 -0.18202458 -0.07707288 -0.07907909 -0.09812434 0.18671364 -0.063013814 0.008082654 -0.116160825 0.016497651 -0.012745183 -0.100615874 0.15470828 0.13940997 0.11945742 0.17658252 -0.09657266 0.035682954 0.054080117 0.08972998 -0.12249478 0.20750591 0.08860239 -0.016470358 0.25777662 -0.32456014 -0.024974186 0.032874867 -0.27075896 -0.00039386566 -0.05504542 0.04243802 0.053600512 -0.11319868 -0.10185114 0.20658582 -0.019600727 -0.05317061 0.15212585 0.15911894 0.09771234 -0.013976038 -0.07939459 -0.14892314 -0.062421385 0.18713136 -0.0799382 0.10571992 -0.049050614 0.084139615 -0.009149905 -0.262592 0.008929074 0.11899283 0.09263889 0.1080053 0.23719378 -0.048640527 -0.13948196 -0.108866684 0.24468909 -0.057558477 -0.118061885 -0.13979085 0.15984483 -0.023416035 -0.04340011 0.13506521 0.01623552 0.016861182 0.028075147
A61P00310 -0.15069963 -0.056805138 -0.031540155 0.0053032488 0.015019761 0.049475044 0.1297163 0.024384156 -0.21813862 -0.0045896 0.16206753 -0.08088903 0.059762552 0.036667023 -0.22885557 -0.25149375 0.1435158 -0.00978673 0.16717517 -0.110268466 0.05850838 -0.29474247 0.15478945 0.09783335 0.0041438397 -0.15401825 0.077936605 0.19497104 -0.25871718 0.1747728 -0.12254207 0.13991128 -0.13252422 -0.10070371 -0.16417508 0.03404499 -0.082601964 0.19569731 -0.051690977 -0.0042726723 -0.044803865 0.00959487 0.06559259 0.2086723 -0.101606786 0.068628035 0.06937363 -0.28895104 -0.061629854 0.0709393 0.04994458 0.11471871 0.048146818 -0.006435719 -0.09452074 0.17181653 0.08224732 -0.09074937 -0.3455547 -0.049451463 -0.019896949 0.063532785 0.04002695 -0.27968243 -0.010947159 -0.1349924 -0.014794214 0.06530024 0.07470341 0.0025413919 0.15176994 -0.073007874 -0.05263461 0.09925413 0.14992456 0.07706337 -0.11253769 -0.21703568 0.06221349 0.04699364 0.0123514645 0.082621604 0.0052019926 -0.10991669 -0.25233415 -0.014214375 -0.25054878 0.11461748 -0.18931897 -0.0063430415 -0.24015267 0.011718627 -0.073642604 0.06480134 -0.17295064 0.12945564 0.22543788 -0.031894654 -0.0733508 -0.10996063 -0.17293788 0.0145410905 -0.07979909 0.009008351 0.053610414 0.15304512 0.18359427 0.099661335 -0.18233272 -0.07251188 0.04264675 0.117459744 0.16308156 -0.031190727 0.13652997 -0.09730539 0.12215196 0.03616981 -0.08180049 -0.16516304 -0.012741667 -0.005827166 -0.010412837 0.007983771 0.20017336 0.07585637 -0.0031974376 0.08579459 0.090351805 -0.05142748 0.06473141 -0.10678525 -0.03436784 -0.007837342 -0.092844605 -0.31946355 -0.07257597 -0.1321135 0.074252225 -0.02614011 -0.07961557 0.14021009 -0.037221316 -0.26464832 0.002674719 0.074693136 -0.06283816 -0.13282616 0.008415018 0.21924485 -0.11887295 -0.24195169 -0.040976565 0.1505908 0.0922992 0.08179686 0.20553906 -0.15247476 0.016295973 0.16838104 0.079794064 0.0009858328 -0.029231053 0.18643352 0.06358992 0.11445415 0.103973165 0.11051155 -0.08385152 -0.04322888 0.083934635 -0.039848693 0.088592865 -0.19172917 0.034190126 -0.24719182 -0.03419022 -0.12115694 0.13962135 -0.08740976 -0.07080179 -0.033652928 -0.107987516 0.2776253 0.032124672 -0.22391042 0.07016247 0.01592268 -0.06654395 -0.20323907 0.14037892 0.16941716 -0.038230363 0.1023132 -0.008208083 -0.021822032 -0.16135344 -0.09740015 -0.0865936 0.11837095 0.023104541 0.007447095 0.05944082 0.11439293 0.14251144 0.13481554 0.22586243 0.017711041 0.044393912 -0.12836905 -0.07088811 -0.043142732 -0.11679588 -0.08392217 -0.006100989 -0.009968843 0.0116120735 0.009596882 0.017712051 -0.04849747 0.067606695 0.1710284 0.13776906 0.040161908 0.1410597 -0.010942815 -0.3416262 0.10854997 -0.10126567 0.010641787 -0.188507 -0.067352794 -0.07268903 -0.08642068 0.1724404 -0.04856663 0.018324431 -0.10378112 0.023134574 -0.005273408 -0.100515895 0.1515513 0.14690155 0.1327324 0.1731865 -0.097247005 0.045024075 0.055857774 0.10214888 -0.14451106 0.21686187 0.07854598 0.003360621 0.2566073 -0.33802637 -0.017661646 0.013591335 -0.29543763 -0.009399039 -0.064463146 0.027035715 0.048355874 -0.116164386 -0.115067355 0.21161109 -0.01807934 -0.046885826 0.14472185 0.18274064 0.098576285 -7.2940835e-05 -0.094584286 -0.13013995 -0.042037785 0.18747643 -0.07639382 0.095520936 -0.041667297 0.08704737 -0.012439002 -0.262546 -0.004814634 0.1017063 0.08722081 0.08817185 0.24517033 -0.049178496 -0.14298326 -0.1123818 0.23187853 -0.04292749 -0.11434496 -0.14174958 0.15585697 -0.016695496 -0.026714576 0.12478902 0.02573967 0.02425026 0.011210542
A61K031538 -0.164173 -0.05813296 -0.02576188 -0.003883952 0.036875922 0.08711831 0.14543691 0.057925135 -0.24865322 -0.036418006 0.19446652 -0.089441225 0.074090175 0.068688065 -0.24882545 -0.25137267 0.18252179 -0.009294798 0.18600723 -0.15150587 0.074980415 -0.33203396 0.16910131 0.08568876 0.036520578 -0.17647205 0.058122512 0.20765866 -0.28246298 0.17769772 -0.15063332 0.13130158 -0.1587776 -0.11775407 -0.16817792 0.023904959 -0.08536725 0.21373397 -0.031247286 0.0010853644 -0.093274124 0.0013068031 0.07652045 0.25128925 -0.10002106 0.064044915 0.07008443 -0.30353084 -0.054979723 0.07276559 0.056280576 0.15288794 0.054216307 -0.005647036 -0.11072571 0.20305079 0.099934354 -0.09189803 -0.4028114 -0.051080417 -0.037925817 0.08163359 0.05081463 -0.32217222 0.017757297 -0.16219608 0.0379671 0.0786407 0.076218426 0.00067010184 0.15643005 -0.08776212 -0.055350363 0.0717407 0.14666218 0.07002852 -0.13336 -0.22684789 0.063471146 0.019194905 -0.025101235 0.070353754 0.026315287 -0.10652799 -0.2982745 -0.02023902 -0.26991573 0.13719362 -0.23436706 -0.004979878 -0.27570382 0.02055006 -0.0748576 0.105563544 -0.19554587 0.13640685 0.26258636 0.0053947563 -0.069847986 -0.12713291 -0.17389785 0.023929238 -0.060029354 0.0004453878 0.04133544 0.17740777 0.21496396 0.1192064 -0.18766706 -0.059741095 0.03654933 0.121438 0.17516616 -0.03801895 0.1435326 -0.0852775 0.13968351 0.049057655 -0.082727656 -0.18476444 -0.02482695 -0.023863008 -0.020963823 0.00847036 0.23173536 0.09320688 0.018382793 0.12696375 0.098741464 -0.08583557 0.060325205 -0.12776992 -0.049309444 -0.0053998902 -0.08207252 -0.36763325 -0.08683226 -0.15722865 0.06975046 -0.007695167 -0.097998105 0.16831508 -0.029437242 -0.308057 -0.01845475 0.09117466 -0.07620724 -0.15117478 0.029996892 0.26117867 -0.13922103 -0.23974684 -0.027811212 0.14339052 0.0879417 0.12882209 0.20937793 -0.17864881 0.031554155 0.18749729 0.08406657 0.03127055 -0.037305623 0.17707802 0.08553304 0.13158207 0.104341604 0.14574996 -0.08570524 -0.061733115 0.085043594 -0.030902104 0.15039045 -0.21537401 0.061335698 -0.2740729 -0.057129588 -0.15552025 0.151597 -0.08702652 -0.08593083 -0.03372732 -0.09074817 0.31023547 0.033947997 -0.2582087 0.10778768 0.01874998 -0.063986965 -0.23484968 0.14510098 0.18715376 -0.04367954 0.13106196 -0.058052283 -0.040320557 -0.17456163 -0.10137146 -0.08991137 0.14804585 0.027967235 0.009617771 0.044781 0.11435332 0.16138045 0.141108 0.24852577 0.015469503 0.0470615 -0.13511424 -0.05202136 -0.097987466 -0.14708544 -0.1074251 -0.017095322 0.0056245355 -0.011182627 0.026211448 0.030870661 -0.036145035 0.06016705 0.15885168 0.1549361 0.04989165 0.14367001 0.026714329 -0.36135682 0.09961923 -0.116377674 0.014007742 -0.22554144 -0.09392759 -0.11451045 -0.094974965 0.19294083 -0.064473465 0.015257962 -0.12921844 0.016946144 -0.0047877836 -0.10208763 0.17621182 0.18975474 0.10710775 0.1681592 -0.121285185 0.032752078 0.06800562 0.0983416 -0.14260855 0.24130274 0.12640819 -0.016128741 0.29299867 -0.3962914 -0.039312277 0.053481147 -0.32238406 -0.018677467 -0.07642794 0.035804056 0.06506199 -0.12845804 -0.12638462 0.24007194 -0.038877606 -0.07331056 0.17253275 0.15118626 0.10629552 -0.01889487 -0.092714936 -0.17139609 -0.07466923 0.20786789 -0.08090124 0.12150825 -0.052541036 0.116324194 -0.022830816 -0.31235167 0.024571566 0.1195372 0.10387743 0.10422041 0.26090005 -0.08066963 -0.1687071 -0.121461876 0.29170758 -0.07287912 -0.11760038 -0.14970694 0.16938607 -0.027164763 -0.053850163 0.14946447 -0.0013563005 0.029633295 0.018774375
C07C22900 -0.15815267 -0.041669436 -0.033047847 0.020973446 0.015112804 0.087617874 0.13450637 0.042592715 -0.23726317 -0.030697243 0.17286336 -0.09196538 0.07346446 0.035253525 -0.23099956 -0.2528817 0.16575578 -0.01952331 0.1614579 -0.1546027 0.07018024 -0.30358592 0.15804765 0.077553995 0.037015375 -0.17948017 0.05128248 0.1951012 -0.2709994 0.167704 -0.10536329 0.12660609 -0.14628586 -0.11947819 -0.17749287 0.022146698 -0.06799996 0.19713408 -0.026446149 0.0134573905 -0.068140015 4.8520436e-05 0.06729829 0.22208297 -0.11778961 0.07265934 0.10491845 -0.28065777 -0.053708185 0.05096669 0.0558339 0.13284089 0.03446057 -0.015960388 -0.1004645 0.20249805 0.10523668 -0.082185805 -0.38258073 -0.05019122 -0.041367866 0.06549704 0.043090127 -0.2947084 0.0006467849 -0.15078509 0.06363255 0.10540608 0.0745751 -0.0012965399 0.15593384 -0.058521975 -0.06743178 0.055977944 0.14213894 0.0786649 -0.12470647 -0.20950687 0.073161975 0.021798486 -0.024794897 0.07375912 0.049416896 -0.10108507 -0.28760573 -0.03237649 -0.22641294 0.11899344 -0.2195764 0.0022709337 -0.27488762 0.038632445 -0.064684086 0.10616843 -0.17772251 0.1345609 0.28338486 -0.008215875 -0.056440104 -0.114953086 -0.19335143 0.015570386 -0.025477268 0.026431486 0.03818034 0.15119515 0.19748424 0.11457477 -0.17202365 -0.061204463 0.057867054 0.13619061 0.15771374 -0.0245482 0.12718545 -0.082103565 0.14051877 0.010870322 -0.08896518 -0.17726804 -0.014974655 -0.025453089 -0.010485121 0.012108533 0.23092154 0.06021925 0.03352182 0.11183241 0.0538542 -0.07939666 0.06026669 -0.1352251 -0.027607897 -0.0015226554 -0.0685828 -0.32268897 -0.08057202 -0.10340031 0.07686167 -0.014233527 -0.11494223 0.14598921 -0.028011143 -0.2853748 0.0141276 0.099508986 -0.052727826 -0.17717367 0.034058947 0.25416464 -0.14227803 -0.22408399 -0.02709749 0.12671182 0.07936386 0.08655746 0.19212173 -0.16746482 0.012989257 0.17719345 0.080716215 0.030853953 -0.028332539 0.1735755 0.09296085 0.11928792 0.09621325 0.12804572 -0.1008359 -0.033871412 0.0873072 -0.038489286 0.11870873 -0.2046066 0.064659886 -0.2729197 -0.029713443 -0.13512878 0.14446989 -0.067205355 -0.08857742 -0.02545091 -0.07448445 0.3020912 0.03549966 -0.2611612 0.084942475 0.0113155935 -0.053193264 -0.21440658 0.12260829 0.16500568 -0.05526785 0.09166952 -0.05406124 -0.02997743 -0.15615752 -0.10847472 -0.10650941 0.13395464 0.025599962 -0.0011762521 0.039349098 0.11586549 0.16067739 0.12228158 0.23529123 -0.0060257614 0.03647863 -0.11218695 -0.054361675 -0.06815316 -0.14398614 -0.07584372 -0.04054905 -0.0033815026 -0.006754967 0.03667767 0.05301151 -0.032141935 0.07669919 0.14923376 0.15282848 0.017220331 0.13643725 0.02057137 -0.31614518 0.10675506 -0.0861925 0.007685103 -0.21245925 -0.07748396 -0.07094346 -0.11355721 0.20065992 -0.052160732 -0.0071619772 -0.115458265 0.025853053 -0.015880592 -0.10548389 0.18324488 0.15853292 0.10679794 0.17993684 -0.08932019 0.048429966 0.0508909 0.07457282 -0.11537487 0.20169348 0.09586586 -0.03246289 0.28633335 -0.33367392 -0.016673073 0.043988135 -0.2651031 -0.009771686 -0.057666425 0.04256201 0.07137906 -0.11328962 -0.08389724 0.21068995 -0.011098091 -0.06391621 0.1690279 0.16207807 0.106536195 -0.023303946 -0.07234253 -0.17115499 -0.08405094 0.19789982 -0.062071785 0.119374864 -0.059778553 0.114700206 -0.020638248 -0.2841786 0.016081085 0.13173103 0.09692499 0.12477901 0.23922959 -0.06223593 -0.14672367 -0.108933106 0.28683862 -0.07533796 -0.14828171 -0.13594928 0.18885422 -0.027342744 -0.06487475 0.14703543 0.026392192 0.0013390748 0.029322848
C07D40114 -0.15358022 -0.051010497 -0.035690043 0.0061595463 0.022565994 0.060204003 0.14448492 0.030041903 -0.22125864 -0.015344391 0.16932395 -0.09315097 0.066082396 0.050386086 -0.23797902 -0.25457174 0.17615846 -0.0071054245 0.1666566 -0.14254186 0.06400985 -0.302368 0.15542623 0.080480956 0.026068812 -0.1608529 0.07122639 0.20531446 -0.26181847 0.17817146 -0.1273748 0.1365506 -0.14320926 -0.10314124 -0.17300417 0.024716055 -0.056019675 0.21442026 -0.050737783 0.006676138 -0.053842627 0.00051914743 0.06830223 0.22414002 -0.10628176 0.08352767 0.08001325 -0.2852561 -0.0616184 0.06459346 0.05683009 0.1362947 0.036869332 -0.0058592944 -0.09270219 0.19253138 0.08497986 -0.077898726 -0.35217053 -0.045719814 -0.025368672 0.051456694 0.029780721 -0.29944193 -0.0010039763 -0.1581769 0.007166016 0.07464159 0.075498864 0.010060621 0.15812735 -0.07387071 -0.06285006 0.09764211 0.14493613 0.07638912 -0.11045075 -0.22475487 0.06073592 0.039867464 -0.0046394723 0.07914801 0.01951666 -0.097718775 -0.27661234 -0.029019149 -0.25356117 0.12745449 -0.20077826 -0.009193536 -0.25675333 0.023435472 -0.061386075 0.07804278 -0.16610277 0.1251995 0.23860547 -0.022792561 -0.077478334 -0.11542192 -0.18116997 0.02403527 -0.059017234 0.012849882 0.049328055 0.16215649 0.19224283 0.11124316 -0.17699085 -0.07446508 0.04506176 0.12196273 0.16352186 -0.018362882 0.1365344 -0.10007878 0.1264525 0.028703988 -0.09485017 -0.17980112 -0.0091895275 -0.021225765 -0.012075361 0.009302581 0.20462142 0.07330803 0.014026678 0.10263663 0.087349676 -0.06518026 0.064976804 -0.11265149 -0.027839705 -0.003861431 -0.081307605 -0.32924408 -0.07435869 -0.11608843 0.0837131 -0.01695121 -0.074266 0.15326145 -0.026866322 -0.2885632 0.008408386 0.08039903 -0.05870492 -0.14286806 0.0367226 0.23256074 -0.13252866 -0.23562768 -0.046033986 0.13526689 0.093157694 0.09942468 0.20090708 -0.17040263 0.014490126 0.1647823 0.07653211 0.014778543 -0.033127606 0.1960422 0.070254974 0.10820169 0.10006359 0.10780606 -0.09415464 -0.046304584 0.09829376 -0.04278423 0.11315798 -0.18688738 0.04082564 -0.26112965 -0.033919856 -0.14091697 0.1298384 -0.0694303 -0.0734286 -0.029238064 -0.09027003 0.29222092 0.026878593 -0.23874639 0.085854776 0.024346855 -0.054842 -0.19905108 0.12639432 0.17111978 -0.054118045 0.11574388 -0.02225782 -0.034019332 -0.14192243 -0.09154292 -0.09551793 0.12553608 0.034717545 -0.0026957009 0.045238737 0.09637563 0.14652185 0.1274422 0.21660425 0.013838421 0.048405394 -0.12704597 -0.056204386 -0.059711475 -0.117340855 -0.073595315 -0.015715579 -0.010527184 0.006488362 0.010934881 0.03132108 -0.044758353 0.07386846 0.15512289 0.14311257 0.023734702 0.1353965 -0.0070457733 -0.32930633 0.09850933 -0.09467482 -0.00068130373 -0.18630181 -0.075510375 -0.07638998 -0.10943295 0.18724693 -0.05613422 0.0059485207 -0.10529473 0.020962145 -0.01672185 -0.11180101 0.16748261 0.15160541 0.1272333 0.17435011 -0.10254618 0.03709711 0.058094814 0.10354333 -0.12617803 0.22204268 0.094032645 -0.007645857 0.26580358 -0.34080788 -0.035815183 0.024681415 -0.28519127 -0.013589927 -0.0566212 0.048656408 0.05949107 -0.1206427 -0.11633614 0.20190504 -0.027470563 -0.050163932 0.16716166 0.17673627 0.096147396 -0.0073901257 -0.08426723 -0.15790167 -0.061248977 0.19387104 -0.081233785 0.105291896 -0.03916185 0.10334085 -0.0054674214 -0.26085886 -0.0024084474 0.10876699 0.0996489 0.10806027 0.25730824 -0.057636656 -0.14558579 -0.10839549 0.24440855 -0.05664124 -0.11882953 -0.12639019 0.17259301 -0.028560013 -0.04542106 0.13718033 0.021122413 0.017812327 0.019028071
A61K031425 -0.132667 -0.045747075 -0.038877062 0.009388167 0.017988317 0.04338542 0.12303788 0.030513799 -0.1958043 -0.016152294 0.14985566 -0.07012761 0.055051386 0.042488165 -0.20452629 -0.21620293 0.14266637 -0.009217858 0.14741994 -0.11301942 0.05739396 -0.26376638 0.13286984 0.07363768 0.013138361 -0.14079916 0.05798754 0.17827664 -0.2274419 0.1462742 -0.099965096 0.122303136 -0.12199862 -0.09628179 -0.15421031 0.028239213 -0.059331574 0.17802083 -0.049327884 0.0025492557 -0.046850346 0.008453078 0.05525021 0.1993366 -0.09518017 0.06472544 0.068039544 -0.24895819 -0.05923043 0.066616595 0.05343151 0.11526984 0.047328148 -0.002623253 -0.08711574 0.17446794 0.073767364 -0.0749469 -0.29905626 -0.035568014 -0.019761402 0.04362108 0.02369081 -0.26247683 0.0008994329 -0.1297077 -0.0041441494 0.06545772 0.06024366 0.00035776568 0.13031901 -0.0686127 -0.054744706 0.08269405 0.13895196 0.07129631 -0.10266114 -0.18770792 0.052494697 0.034736153 0.00030362484 0.0721816 0.009197849 -0.0951741 -0.23124065 -0.017194362 -0.22119817 0.10516734 -0.18258709 -0.00498924 -0.22476824 0.011719897 -0.061323866 0.07219888 -0.1451103 0.10381723 0.21132563 -0.027141988 -0.06840741 -0.10324334 -0.1673601 0.007950661 -0.06833725 0.0029869252 0.035419006 0.14370397 0.17026182 0.09714817 -0.15378913 -0.058726367 0.034901813 0.10712268 0.14554182 -0.025941495 0.1230052 -0.085554205 0.11313539 0.023158338 -0.08346505 -0.15128501 -0.012330241 -0.019876666 -0.013960133 0.014899418 0.17985608 0.064750664 0.012628402 0.09179288 0.0807799 -0.045558456 0.055174626 -0.103958696 -0.036453873 -0.009504912 -0.0647114 -0.28754723 -0.0679497 -0.10984611 0.07327678 -0.022206763 -0.06691029 0.124225914 -0.028793423 -0.237473 0.0009798162 0.07599573 -0.057870876 -0.12790416 0.025091544 0.20264049 -0.11818544 -0.20525399 -0.041644897 0.12690336 0.07596268 0.08211944 0.1785261 -0.14298005 0.013878337 0.14995003 0.07245521 8.77615e-05 -0.023708101 0.1694199 0.07046264 0.10052288 0.08596428 0.10002954 -0.068777524 -0.03801476 0.08182057 -0.03984037 0.08674123 -0.17079802 0.041415207 -0.23328231 -0.025047509 -0.12255238 0.11796525 -0.0689763 -0.06319018 -0.027714094 -0.078691594 0.25774068 0.02524442 -0.20807047 0.07305839 0.017617218 -0.05088661 -0.1814683 0.11281795 0.1449515 -0.047297116 0.099604 -0.016431158 -0.030217452 -0.13938393 -0.080748595 -0.08462709 0.1161387 0.022776987 -0.005941782 0.04895534 0.09909472 0.12685439 0.11973368 0.20100357 0.019863363 0.053285323 -0.11343778 -0.058316637 -0.04477597 -0.1182019 -0.06786738 -0.008722878 -0.00998924 0.0139506245 0.004251078 0.025764838 -0.03546897 0.06413834 0.1454093 0.12248025 0.026558386 0.12518491 -0.0038987477 -0.29945803 0.08238763 -0.09245393 0.0014742117 -0.16577828 -0.067903936 -0.075318664 -0.094741605 0.15321887 -0.043217167 0.011255274 -0.09342375 0.029817663 -0.013709912 -0.090325676 0.13810812 0.12730496 0.112070814 0.15332654 -0.088055804 0.037903685 0.055745818 0.09771516 -0.11763251 0.18931481 0.07597852 -0.003619962 0.22869499 -0.28836688 -0.022567276 0.020613614 -0.24985857 -0.003769088 -0.052699193 0.039457507 0.047668763 -0.099707015 -0.101069376 0.18949945 -0.025656862 -0.039197735 0.13605638 0.15673877 0.08202854 -0.009915752 -0.08068648 -0.12813206 -0.040662535 0.17427786 -0.05997128 0.09472111 -0.039994325 0.07874027 -0.011727217 -0.22631936 0.0018841567 0.102706306 0.08397927 0.09808416 0.21563207 -0.04639523 -0.12716126 -0.0997685 0.2131734 -0.04410315 -0.1102811 -0.123221815 0.15023968 -0.01581342 -0.037297044 0.11373649 0.019937208 0.01798096 0.013629827
A61K03156 -0.104582064 -0.029398534 -0.0197781 0.012011949 0.01718594 0.057898805 0.09114292 0.030655617 -0.14498685 -0.015189488 0.11918653 -0.06575126 0.040047508 0.031640727 -0.15897094 -0.16348855 0.11594325 -0.014509891 0.10865428 -0.10216962 0.038245067 -0.19824722 0.108432196 0.05876638 0.030307058 -0.11179848 0.043316353 0.12822694 -0.1856227 0.1073259 -0.08453042 0.09048554 -0.09151458 -0.07844528 -0.121526286 0.015117421 -0.049140368 0.14620566 -0.014835123 -2.3150098e-05 -0.049264345 -0.008474535 0.046508845 0.15759593 -0.0728569 0.057947133 0.060907375 -0.17646588 -0.026617568 0.033966895 0.034578595 0.09376858 0.028744148 -0.004737183 -0.07051974 0.13110061 0.05967117 -0.05303346 -0.25038725 -0.029596113 -0.026524954 0.027352711 0.019999828 -0.20774993 0.0015923658 -0.09944563 0.013840253 0.05551667 0.048191525 0.0040324773 0.10533762 -0.047750074 -0.050475474 0.04340292 0.0914225 0.04292061 -0.07539234 -0.13349354 0.047520358 0.02328718 -0.00047064884 0.04806498 0.02555898 -0.07042476 -0.18647775 -0.027359268 -0.16981551 0.074548006 -0.15154693 -0.0031262683 -0.18113224 0.020557823 -0.04880071 0.066727705 -0.11633025 0.09113937 0.17511003 -0.012094859 -0.042768043 -0.072189756 -0.12270027 0.019306865 -0.038109284 0.0074050436 0.031240415 0.11130009 0.13703045 0.071121 -0.12040296 -0.035486802 0.036102477 0.07559669 0.101958126 -0.010370064 0.08681519 -0.062378556 0.08926561 0.021136012 -0.05251386 -0.1218398 -0.0059864256 -0.0115251485 0.00075108954 0.0034916752 0.13725373 0.04277946 0.017697325 0.07668107 0.051789425 -0.047671307 0.036829725 -0.08551157 -0.025569199 -2.1285328e-05 -0.038881816 -0.22177601 -0.060122427 -0.06884925 0.05713 -0.011711501 -0.059290297 0.09569641 -0.0075860023 -0.1941527 0.010008347 0.061184753 -0.044386074 -0.108097225 0.029778467 0.16730146 -0.09403766 -0.14418726 -0.024628665 0.07974949 0.064258605 0.069020316 0.1275742 -0.1251419 0.018313909 0.11173129 0.06499459 0.012040984 -0.023184046 0.119030505 0.05042254 0.078094915 0.066571064 0.08410028 -0.072074264 -0.033963382 0.06499395 -0.030860912 0.09165127 -0.12148023 0.0414667 -0.181739 -0.027726125 -0.09290272 0.09799377 -0.049345654 -0.06141725 -0.014964139 -0.048300177 0.1994058 0.014346625 -0.1650624 0.07031858 0.01710478 -0.035910476 -0.12716354 0.080759086 0.11387064 -0.044802144 0.06571567 -0.029588306 -0.03311434 -0.101675265 -0.06308106 -0.07267739 0.09030412 0.021666478 -0.0074441107 0.027609613 0.07463979 0.105558686 0.078774355 0.15621579 0.0015215685 0.036619358 -0.083199956 -0.03837035 -0.05215445 -0.08560773 -0.03810444 -0.020102747 8.693409e-05 -0.0005351085 0.013006922 0.022163697 -0.025394702 0.04058621 0.10454383 0.08985737 0.015626281 0.0926757 0.011566281 -0.21892649 0.062527776 -0.057688076 -0.0007358492 -0.12937398 -0.057981856 -0.06078607 -0.07619234 0.13100654 -0.037563186 -0.0051483996 -0.08147581 0.011906048 -0.005452404 -0.07503889 0.11285377 0.107490644 0.0763609 0.1110024 -0.060579516 0.02693814 0.035328813 0.05751325 -0.07617632 0.13999563 0.07842681 -0.015642548 0.18531185 -0.22982438 -0.009689197 0.027085612 -0.19010544 -0.0013823628 -0.04474078 0.0280652 0.0465933 -0.0785956 -0.066425614 0.13664804 -0.021753948 -0.043879528 0.11815904 0.11099703 0.070684046 -0.013551468 -0.056834884 -0.10602455 -0.047740526 0.12549701 -0.049149007 0.079675965 -0.0363543 0.06679886 -0.004595279 -0.18990137 0.011388524 0.07857921 0.060402546 0.07621476 0.16111949 -0.04368573 -0.09210477 -0.07429806 0.18584003 -0.05323709 -0.085139126 -0.09423941 0.11305608 -0.0168166 -0.035757896 0.096555054 0.021313492 0.009783298 0.007623354
A61K03155 -0.15139684 -0.0444889 -0.029781083 0.008277071 0.009900124 0.08111597 0.11834828 0.033264525 -0.20967756 -0.014714538 0.1676307 -0.08737306 0.048186753 0.037488684 -0.2210832 -0.24729735 0.16107668 -0.0058086882 0.1535028 -0.14966464 0.061813995 -0.2701726 0.1561858 0.08504036 0.034009896 -0.15351148 0.0717857 0.18825875 -0.27245253 0.16770488 -0.11589811 0.12623708 -0.13571812 -0.12420711 -0.1778473 0.040209502 -0.07651534 0.20151648 -0.0182709 -0.0042507346 -0.06918185 -0.0115707815 0.071429245 0.23253238 -0.11303071 0.08806359 0.07820975 -0.2732187 -0.042288106 0.06773388 0.051280573 0.13231735 0.035786696 -0.013991418 -0.10362986 0.18167752 0.091585636 -0.06799348 -0.35885185 -0.059313223 -0.033885516 0.037450768 0.03116955 -0.28690794 0.0024997871 -0.14693354 0.039265446 0.07719006 0.07727455 0.0006881347 0.1561409 -0.06683375 -0.048075132 0.065961234 0.13278568 0.06671076 -0.12221962 -0.20575672 0.0719182 0.023170728 -0.01048046 0.07881799 0.034447677 -0.088255875 -0.26858243 -0.034184735 -0.23860888 0.109770894 -0.19844244 -0.007937185 -0.25026622 0.03235432 -0.063613124 0.089290604 -0.17630522 0.12063394 0.22847494 -0.008722851 -0.062199567 -0.10385811 -0.1890072 0.00311726 -0.058914497 0.020517033 0.041652396 0.145245 0.17722134 0.11441533 -0.16866946 -0.06718706 0.037927654 0.11663962 0.15493585 -0.02470993 0.1149432 -0.10096308 0.12706779 0.021702718 -0.079688214 -0.16778836 -0.014402339 -0.003020625 -0.021149928 0.0024595195 0.21112439 0.05760849 0.035552707 0.09674695 0.061739612 -0.0702989 0.056019843 -0.13548689 -0.036467858 0.002398551 -0.053912133 -0.3203869 -0.08750515 -0.1185201 0.07885106 -0.026005581 -0.09103969 0.15091987 -0.014019803 -0.28751606 -0.003808167 0.07867192 -0.054598123 -0.15148804 0.04131578 0.22038399 -0.12565538 -0.204603 -0.041031785 0.12121437 0.081498474 0.09965968 0.18025601 -0.15867126 0.013031526 0.16359664 0.0962019 0.017624617 -0.026720837 0.17587343 0.07705304 0.101937786 0.09959135 0.1000763 -0.10126472 -0.02162591 0.08810383 -0.053417854 0.11681924 -0.17413835 0.048521053 -0.2498924 -0.034964547 -0.13260514 0.13879488 -0.07000909 -0.08339964 -0.030707803 -0.08408763 0.28779697 0.015376409 -0.23677476 0.09610314 0.025349692 -0.05415147 -0.19330736 0.1216292 0.1786221 -0.053344425 0.095696576 -0.041972596 -0.044943497 -0.15273966 -0.090373576 -0.09369618 0.117586285 0.02771977 -0.0093726795 0.047148257 0.10961268 0.14537375 0.11379818 0.22043999 0.012461245 0.032008957 -0.1080075 -0.053579163 -0.07517096 -0.12268777 -0.05031279 -0.036096733 -0.016286694 -0.005278153 0.03383508 0.037891485 -0.042275563 0.062340885 0.16097179 0.1470249 0.043293677 0.13043275 -0.0007931416 -0.3246908 0.09629147 -0.08601032 -0.013128543 -0.1945634 -0.079950556 -0.089046694 -0.10974666 0.1852875 -0.056339342 0.004421706 -0.116810575 0.02720707 0.00043494903 -0.106562786 0.17489125 0.1477247 0.11913588 0.17291716 -0.08718486 0.014265213 0.0597442 0.09644476 -0.12096068 0.20474547 0.09816229 -0.01096037 0.27511248 -0.32411587 -0.024905536 0.038755883 -0.2795683 0.00048973795 -0.07101854 0.04666793 0.061766773 -0.10214353 -0.105818056 0.20708188 -0.02883508 -0.059782933 0.14864752 0.15343511 0.09543226 -0.008155102 -0.069874115 -0.14385143 -0.05506131 0.1883416 -0.06742558 0.109794594 -0.04653018 0.09860279 -0.0033158832 -0.28393176 0.013066508 0.09391395 0.08755672 0.10253313 0.23964073 -0.05696934 -0.14222892 -0.094285 0.24597451 -0.0752574 -0.12956361 -0.1404581 0.15942617 -0.03560154 -0.04496098 0.12671942 0.01754211 0.018142896 0.027352981
A61K03119 -0.13155998 -0.043265894 -0.025762914 0.013772807 0.011035008 0.08300678 0.11826079 0.034607355 -0.19971672 -0.022107868 0.14306904 -0.070715316 0.06693097 0.028950872 -0.19830124 -0.2181507 0.14554417 -0.010541943 0.13984314 -0.12620147 0.064716786 -0.25470465 0.14431062 0.060619604 0.037783768 -0.14772823 0.048652664 0.1640917 -0.22034349 0.14613093 -0.096331805 0.10541349 -0.13055666 -0.10413227 -0.15461849 0.019025892 -0.06413058 0.1739144 -0.030297289 0.008081222 -0.056306213 -0.006081338 0.060096502 0.19227718 -0.09490692 0.05793834 0.08248191 -0.24701437 -0.052012406 0.0371517 0.0482984 0.117382035 0.026662536 -0.012439029 -0.09033079 0.18272424 0.09585325 -0.06408034 -0.33207372 -0.049200445 -0.03381132 0.055574257 0.028389297 -0.25263277 0.0050248187 -0.13090771 0.047229066 0.09418365 0.062202904 -0.0026000622 0.14174202 -0.05374993 -0.059111424 0.051529948 0.12617622 0.061084438 -0.11022345 -0.1853547 0.06238056 0.019333044 -0.015457922 0.06290981 0.031066487 -0.08565844 -0.24234726 -0.039893907 -0.20546298 0.10810691 -0.18978722 0.0036685693 -0.23079272 0.034393996 -0.054686815 0.09528286 -0.15680024 0.11835833 0.23991464 -0.009986625 -0.048384286 -0.09640165 -0.17074569 0.017981654 -0.030738328 0.025190432 0.034655277 0.13713723 0.16740136 0.10116221 -0.13768375 -0.056049287 0.047666185 0.12106459 0.13753517 -0.0146544175 0.11098017 -0.06959052 0.12294932 0.015472396 -0.07821868 -0.15960641 -0.0115955025 -0.02640211 -0.012795222 0.011031521 0.19402817 0.05383985 0.031918164 0.09186384 0.048986796 -0.061486114 0.049868554 -0.11835811 -0.031059228 -7.247767e-05 -0.058669697 -0.28315493 -0.061656173 -0.09617269 0.07137869 -0.017381214 -0.08954172 0.13118558 -0.0250573 -0.24709564 0.0028551046 0.08567252 -0.045681912 -0.14474484 0.038375862 0.21398665 -0.12626378 -0.18655692 -0.020810373 0.109869726 0.07099379 0.07583298 0.16589461 -0.13847254 0.0016715172 0.14876173 0.06923845 0.031472705 -0.043668613 0.15474904 0.07426738 0.09766741 0.080949746 0.10386801 -0.08801821 -0.029477207 0.078965575 -0.02871984 0.102985084 -0.17590423 0.05210436 -0.23306589 -0.030707931 -0.11470716 0.12897955 -0.060432997 -0.07698242 -0.025500653 -0.05750688 0.25681546 0.02292471 -0.22554676 0.076036885 0.011226152 -0.049811307 -0.1908053 0.116003655 0.13865902 -0.047282714 0.07951419 -0.041584745 -0.03927503 -0.13199379 -0.08753901 -0.08977385 0.11564645 0.020199133 -0.00066314294 0.0270647 0.09521411 0.13076772 0.10819469 0.20869307 0.006640525 0.03787685 -0.09603016 -0.045315795 -0.0455375 -0.122571185 -0.066776566 -0.026043812 0.0002432078 -0.0060025034 0.03266826 0.038133495 -0.024999917 0.059839867 0.13613613 0.12376294 0.028416805 0.121917814 0.013107333 -0.28028622 0.08397347 -0.06937559 0.0033558686 -0.18787144 -0.06987105 -0.06947697 -0.10186163 0.17690521 -0.04571596 0.0021785235 -0.09601517 0.015500919 -0.017064266 -0.091728844 0.15296912 0.13069801 0.0986231 0.15949258 -0.08130736 0.03158929 0.044212405 0.07642182 -0.09301045 0.17766358 0.08193019 -0.020952415 0.24167557 -0.2868623 -0.020356365 0.036987398 -0.23410086 -0.0019136684 -0.045084342 0.04404588 0.068100676 -0.09349307 -0.07633119 0.18321557 -0.010984051 -0.0600365 0.14104839 0.14106758 0.09123706 -0.020373885 -0.06446716 -0.15336806 -0.07342794 0.16869694 -0.056149557 0.10151941 -0.048757575 0.09097564 -0.017554877 -0.2463658 0.01636352 0.11115551 0.08762446 0.09699827 0.21154015 -0.04557038 -0.13071688 -0.088487424 0.24604885 -0.06640246 -0.12574427 -0.119097285 0.1603448 -0.017691439 -0.051454205 0.12316134 0.023368303 0.0048113405 0.024296962
A61K031445 -0.14061588 -0.05281927 -0.027892713 0.014003302 0.010743578 0.073414385 0.11988276 0.042272042 -0.19907106 -0.019415379 0.15370388 -0.09211546 0.060074426 0.03887255 -0.21000654 -0.21773581 0.15988742 -0.014837691 0.1559466 -0.14615943 0.06313104 -0.25700974 0.13134743 0.0707838 0.045655917 -0.1564059 0.06270243 0.17769329 -0.23172323 0.1357029 -0.10666476 0.09733161 -0.117256 -0.10444914 -0.16739975 0.00844261 -0.067507304 0.19458969 -0.02856119 -0.0052507953 -0.06336881 -0.0034122486 0.059790377 0.20383507 -0.10519119 0.067729235 0.06643483 -0.2468245 -0.044007715 0.059251867 0.044735637 0.13485324 0.028471401 -0.015161344 -0.080019705 0.18324973 0.10102886 -0.06773221 -0.31817797 -0.041007157 -0.029879607 0.041809812 0.034162223 -0.26830015 0.012089263 -0.1429745 0.03184184 0.08452295 0.07263483 0.004505203 0.13371293 -0.062584974 -0.06407872 0.058970097 0.1273206 0.0677711 -0.10364315 -0.1813648 0.06473435 0.035968725 -0.010870805 0.070484966 0.027104052 -0.07771077 -0.25879368 -0.024097735 -0.21744938 0.11539084 -0.21177596 0.002790722 -0.23202378 0.025708377 -0.06159715 0.09287856 -0.15087631 0.10600165 0.23451807 -0.0027310476 -0.05656743 -0.09549751 -0.16661984 0.029899824 -0.03683091 0.009836828 0.014890433 0.13734527 0.18341185 0.10451956 -0.13625143 -0.05522381 0.0447332 0.111061424 0.14257738 -0.018650888 0.11333264 -0.067722276 0.13270217 0.0315381 -0.08762173 -0.1433928 0.0018417459 -0.024298439 -0.019917695 -0.009772301 0.19413249 0.06324921 0.023790633 0.10420157 0.06610473 -0.05300259 0.044916857 -0.12077404 -0.042571586 0.0027451885 -0.06441365 -0.2905168 -0.07887851 -0.10028802 0.06528176 -0.01316284 -0.0881688 0.14175336 -0.018750811 -0.26181138 0.012989326 0.070842676 -0.041629743 -0.14267367 0.044076677 0.22086449 -0.114099525 -0.19504547 -0.025277559 0.11004139 0.084349126 0.09529784 0.15718268 -0.16144058 0.018123958 0.14370722 0.09193251 0.021314671 -0.028498905 0.16784894 0.06964528 0.09018285 0.08710956 0.094363034 -0.08764082 -0.02932472 0.0940684 -0.037893955 0.12138806 -0.1720964 0.043794572 -0.2410166 -0.041750435 -0.1341674 0.124410376 -0.04691117 -0.07995162 -0.017689435 -0.06713858 0.26592135 0.032510906 -0.22938791 0.09067631 0.01632242 -0.04855589 -0.17505172 0.119118504 0.15075047 -0.058102824 0.08835464 -0.0358203 -0.029444136 -0.13456236 -0.093075484 -0.09139358 0.13232288 0.024022276 0.00014195724 0.046253935 0.094585136 0.14438514 0.10317177 0.2157676 0.0028238022 0.043482464 -0.11173396 -0.056219775 -0.06377301 -0.1195822 -0.054738402 -0.025842316 0.0017452259 0.005707998 0.020425038 0.028147465 -0.025093615 0.05472705 0.1381106 0.13096604 0.016347714 0.12022263 0.0014091067 -0.30079806 0.09095178 -0.08636989 -0.00068117055 -0.18463203 -0.06738067 -0.06876338 -0.11418772 0.17161465 -0.05856201 -0.00671382 -0.105429985 0.01461904 -0.0020141313 -0.10664356 0.15516299 0.12466283 0.09617511 0.14119668 -0.08802737 0.01699717 0.05198318 0.07446814 -0.102078505 0.18860374 0.0976901 -0.030093918 0.23984995 -0.29370746 -0.012770797 0.033336494 -0.25340965 -0.0051363446 -0.061034404 0.04644754 0.068724535 -0.08705636 -0.0996539 0.19209161 -0.028605547 -0.05798617 0.15203243 0.14207166 0.098304324 -0.0059677865 -0.071218915 -0.14081626 -0.065811716 0.17786981 -0.07252518 0.113088556 -0.044789836 0.080149084 -0.016176138 -0.24653901 0.021138698 0.09060679 0.0806989 0.11492777 0.22153462 -0.03974439 -0.13466546 -0.100279726 0.2428096 -0.05978658 -0.10039687 -0.13170432 0.15816171 -0.01567395 -0.04788718 0.13666427 0.013615474 0.0132413125 0.018638628
A61K031428 -0.14433077 -0.0462975 -0.020271791 0.009709676 0.012527804 0.071451925 0.13340305 0.061636463 -0.21748438 -0.024207795 0.15862298 -0.092620224 0.050233647 0.051168177 -0.23076655 -0.24565496 0.17571996 -0.010638943 0.16540019 -0.15420483 0.06479937 -0.29631805 0.15946127 0.07857866 0.040445227 -0.1640317 0.05544125 0.2029778 -0.26321882 0.16438128 -0.11272258 0.13610351 -0.12735157 -0.118256375 -0.18083192 0.025126038 -0.07054678 0.21643469 -0.042283293 -0.01089158 -0.0752913 -0.008719319 0.068166725 0.22068238 -0.10526832 0.07550128 0.08336836 -0.2857758 -0.057462838 0.06527763 0.057375565 0.1499803 0.044871494 -0.010061633 -0.091568515 0.20194133 0.094859585 -0.07185291 -0.35809043 -0.045210257 -0.043960944 0.062095348 0.034898683 -0.28963494 0.0019018168 -0.1548009 0.02307923 0.08800361 0.07644969 0.006171974 0.14072096 -0.07288591 -0.064584985 0.07254155 0.14415893 0.06232744 -0.1236275 -0.1928095 0.06798686 0.03702449 -0.007851109 0.07669753 0.02718914 -0.10164086 -0.26780605 -0.031532284 -0.2594983 0.117041305 -0.22622785 4.4342898e-05 -0.2449695 0.022811644 -0.06366182 0.08944116 -0.1795562 0.12051217 0.25745603 -0.021194806 -0.07071122 -0.11324069 -0.1813074 0.026982427 -0.05826509 0.029657999 0.03585527 0.16049288 0.21676223 0.11545759 -0.18408899 -0.0749177 0.058686074 0.123544455 0.16738574 -0.032838356 0.12467206 -0.08853273 0.14325787 0.030494375 -0.092946984 -0.17994188 -0.006269838 -0.012200499 -0.00949847 0.0117721865 0.19273588 0.0663962 0.017949726 0.10813391 0.07596971 -0.07011991 0.060076863 -0.12637246 -0.044096798 0.004922046 -0.08301437 -0.33662063 -0.08256914 -0.111925885 0.078981645 -0.017428562 -0.085862346 0.14580244 -0.030035958 -0.28753346 0.004862447 0.0781048 -0.057889216 -0.14864817 0.028933465 0.2415378 -0.13392127 -0.22369027 -0.028609253 0.12501013 0.08708791 0.102682605 0.19066784 -0.16068673 0.030768309 0.15557002 0.098013215 0.009322798 -0.031181326 0.17953107 0.0840637 0.104294255 0.102801204 0.11255142 -0.09836785 -0.04915073 0.087889545 -0.046360105 0.11198908 -0.18747425 0.055913415 -0.26487648 -0.035162415 -0.14263551 0.13800366 -0.06613999 -0.08767227 -0.039445445 -0.08500897 0.2984706 0.037317414 -0.24851961 0.090447485 0.02640325 -0.06248866 -0.20156957 0.12009489 0.1673577 -0.056792505 0.10013422 -0.035121616 -0.03751993 -0.14920893 -0.08895425 -0.08688848 0.14590141 0.022115063 -0.0028169604 0.036238942 0.107251614 0.15308158 0.12067107 0.23011316 0.0022421232 0.059644025 -0.12162004 -0.062636435 -0.06627192 -0.13132256 -0.057040516 -0.027623957 0.000900494 0.008761442 0.009680796 0.021140238 -0.029990578 0.066159874 0.17332563 0.14678852 0.034112502 0.14326964 5.252546e-05 -0.33954263 0.08857512 -0.092177615 0.0042161313 -0.2018772 -0.066295914 -0.068752885 -0.11198025 0.18159929 -0.06332204 0.014670064 -0.11183166 0.023865364 -0.0132107865 -0.10154315 0.16479415 0.15311307 0.12042243 0.16204508 -0.10464977 0.03285019 0.06354824 0.09448304 -0.12218719 0.21508104 0.09838089 -0.018024078 0.27580538 -0.33609554 -0.021244349 0.03482928 -0.28602955 0.0014740695 -0.0587388 0.03241814 0.063055396 -0.1001757 -0.10406464 0.21174176 -0.024107922 -0.06131173 0.16148892 0.16670392 0.10007843 -0.01937746 -0.09554983 -0.14888276 -0.08157451 0.18840872 -0.08626212 0.11716074 -0.0632487 0.09511531 -0.030486511 -0.26868048 0.010069192 0.11054032 0.080111414 0.102601774 0.24120983 -0.06705636 -0.15094721 -0.1166958 0.2655432 -0.065231875 -0.12232678 -0.14569902 0.17076978 -0.03235419 -0.05534327 0.1464959 0.032618675 0.024206879 0.02967841
A61K03141 -0.099738725 -0.025439167 -0.027150394 0.00822656 0.015361757 0.037139412 0.08928512 0.0249804 -0.14928225 -0.013947431 0.11875205 -0.05130219 0.04484354 0.03828779 -0.16142775 -0.16564737 0.116741925 -0.01763656 0.10699476 -0.08746548 0.041082107 -0.19706762 0.09706878 0.05680758 0.0158587 -0.109698385 0.040473647 0.13446213 -0.17152715 0.11943181 -0.08352058 0.09063415 -0.08864834 -0.073080406 -0.11819871 0.015557739 -0.04168528 0.14701512 -0.03087203 0.008292486 -0.042171195 0.012371411 0.046596143 0.15368766 -0.072260685 0.050982695 0.054066654 -0.18440717 -0.039344672 0.04573891 0.04738703 0.091564134 0.030815734 0.000114183094 -0.06263399 0.13323452 0.062212773 -0.05395644 -0.23093292 -0.0364954 -0.023296261 0.034580357 0.015208115 -0.19291145 0.0030090194 -0.09916275 0.0077151787 0.0492492 0.05266688 0.0027539395 0.104258716 -0.050193254 -0.036904506 0.07202348 0.101735465 0.0587366 -0.07335397 -0.15114972 0.04436136 0.03029933 0.0052509434 0.051941767 0.0103800455 -0.07166759 -0.18240282 -0.013834877 -0.15812218 0.08252648 -0.13757314 0.00283292 -0.16423252 0.019897394 -0.049781095 0.057495046 -0.114673615 0.07728722 0.15922768 -0.022152497 -0.05498065 -0.07010935 -0.12944098 0.018930083 -0.050385077 0.003985149 0.029358082 0.110145204 0.12014302 0.07073813 -0.122403406 -0.055010445 0.030011475 0.08031979 0.10905069 -0.024770346 0.08994279 -0.06594847 0.076946415 0.016280985 -0.05564725 -0.12170978 -0.017635565 -0.008871953 -0.008093828 0.0028713427 0.13359481 0.043884195 0.007654901 0.058179904 0.06227472 -0.031099135 0.046756197 -0.078433454 -0.028087206 -0.0052746492 -0.05199095 -0.21836123 -0.046986926 -0.07809408 0.057632305 -0.015180041 -0.04921823 0.09428549 -0.01513619 -0.18039541 0.0040079914 0.062925085 -0.045272496 -0.10149805 0.015736908 0.14820775 -0.08498801 -0.15331888 -0.032170013 0.10496224 0.06985439 0.065566376 0.13397999 -0.11132817 0.01500491 0.11131365 0.048888497 0.0029856106 -0.025522325 0.13176855 0.0510865 0.06918558 0.07047828 0.06516889 -0.052761257 -0.018005257 0.055711225 -0.029859757 0.074019365 -0.118870124 0.031623878 -0.17808348 -0.016873315 -0.09104378 0.09270475 -0.04758028 -0.05664592 -0.02171602 -0.06429365 0.1929065 0.019451154 -0.15913656 0.058567274 0.016106753 -0.042818077 -0.1307157 0.08366647 0.106981315 -0.0336551 0.078119494 -0.013776867 -0.01563581 -0.094225414 -0.052960504 -0.06676092 0.08769115 0.021535149 -0.0005773726 0.04262146 0.060490172 0.09651964 0.08937261 0.14168137 0.0066212225 0.03948903 -0.08056775 -0.03924057 -0.041596893 -0.0814073 -0.055739105 -0.009578536 -0.0038441634 -0.0015265318 0.009221199 0.025019603 -0.021770349 0.060551852 0.1047896 0.09996195 0.016217662 0.097772054 -0.0040588607 -0.2093188 0.069470346 -0.0666071 0.0009294984 -0.12882231 -0.055657923 -0.04902077 -0.0674665 0.12059887 -0.03400735 0.0039228834 -0.07599205 0.01905042 -0.003940951 -0.075385764 0.108631864 0.097986504 0.088438146 0.115572646 -0.06366105 0.024807638 0.045036934 0.07232573 -0.076271385 0.1574951 0.06435328 -0.007991624 0.17471656 -0.21977034 -0.019182859 0.019390542 -0.19294308 -0.007697393 -0.044420056 0.034358922 0.0354944 -0.08130891 -0.07227413 0.1343934 -0.020971965 -0.021207409 0.10706022 0.111735076 0.064303815 0.0012328513 -0.053631477 -0.110042535 -0.041607846 0.13029163 -0.05182788 0.06368495 -0.026135731 0.05848904 -0.007650309 -0.17829314 0.006080672 0.06760715 0.07285281 0.078443065 0.16307059 -0.032918807 -0.10088982 -0.07177387 0.15667672 -0.03605417 -0.079326466 -0.08976199 0.11993683 -0.02031753 -0.031598944 0.08871744 0.016453465 0.01128032 0.008824184
A01N06500 -0.10982532 -0.02403118 -0.018966319 0.0047094077 0.011860675 0.058793746 0.09444756 0.04206665 -0.15563613 -0.016627707 0.13567823 -0.06218257 0.033257753 0.047222454 -0.15627979 -0.18505849 0.13247707 -0.01866881 0.12211921 -0.11931656 0.05086619 -0.20006579 0.11015415 0.058740705 0.02454932 -0.12102019 0.050196182 0.15431008 -0.19913647 0.10787035 -0.09001822 0.08520467 -0.095109485 -0.09212092 -0.13324107 0.024372492 -0.045949504 0.16769631 -0.026010526 -0.006415551 -0.046228603 0.010289575 0.04901905 0.16633153 -0.08189692 0.06681167 0.062232547 -0.19659959 -0.033047717 0.047811747 0.042557888 0.09011552 0.034760084 -0.014647005 -0.07915317 0.14724569 0.07288596 -0.0488291 -0.27227837 -0.045496304 -0.03430416 0.03343346 0.021205874 -0.21341579 0.010317964 -0.11595626 0.020623632 0.070152655 0.050897248 0.005577458 0.10276792 -0.056814812 -0.048728097 0.060976893 0.103493474 0.04187758 -0.06784665 -0.1531714 0.05766928 0.015174589 -0.008936651 0.05701411 0.02494927 -0.07190816 -0.20237552 -0.03138682 -0.1767619 0.090553105 -0.15766473 -0.0043011685 -0.18904415 0.031427212 -0.052792642 0.07011993 -0.12592807 0.10229453 0.189968 -0.011090668 -0.044786014 -0.07231112 -0.13848609 0.017791232 -0.039225563 0.014452605 0.018655723 0.119822614 0.13346708 0.06916352 -0.120406896 -0.03975509 0.037969604 0.08259275 0.123788215 -0.020961247 0.08515893 -0.06649164 0.09959525 0.025056873 -0.059944462 -0.12950878 -0.013293717 -0.02114695 -0.0114848055 -0.0030636599 0.14503822 0.039914656 0.017616985 0.08748508 0.038442045 -0.046823706 0.045025196 -0.0973664 -0.03907324 0.006792878 -0.044775486 -0.23051232 -0.05734465 -0.08057386 0.05699457 -0.017407082 -0.05081846 0.109338276 -0.011989996 -0.20392762 0.013076039 0.06500335 -0.04024327 -0.103004366 0.033221673 0.1856156 -0.09042547 -0.16482107 -0.022931276 0.09575355 0.062387906 0.07351665 0.14058506 -0.12501143 0.01535885 0.11127156 0.061476454 0.017295407 -0.034621716 0.14393178 0.06768125 0.081070185 0.07883909 0.088824384 -0.06236307 -0.021769285 0.07261947 -0.033431515 0.09970006 -0.12525113 0.04030665 -0.19342941 -0.019766595 -0.10143162 0.09923175 -0.043951806 -0.074866526 -0.017445577 -0.053869825 0.2018855 0.028549192 -0.18120138 0.07393648 0.017677156 -0.02950498 -0.15392427 0.093572035 0.11503183 -0.0470035 0.07733284 -0.02926794 -0.03897791 -0.10606817 -0.057744846 -0.07781946 0.09783976 0.022421388 -0.0038072327 0.026611403 0.08191348 0.10036218 0.100077584 0.15532283 0.0063641258 0.039372135 -0.07119628 -0.036949072 -0.05289884 -0.110368334 -0.046497177 -0.022797028 -0.010441796 -0.0053221676 0.004534556 0.034704875 -0.018319957 0.06292877 0.1156013 0.09971795 0.0253119 0.0965974 -0.003222046 -0.2440782 0.07569922 -0.07384152 -0.010948357 -0.13811338 -0.05033891 -0.052995276 -0.08992914 0.1440308 -0.048133362 0.006859393 -0.089761674 0.023085298 0.0057197087 -0.07679359 0.13296144 0.11533613 0.087103516 0.112008475 -0.059566837 0.023777127 0.037085388 0.06764301 -0.06771916 0.15351541 0.074323975 -0.017527808 0.20346648 -0.23859257 -0.016465262 0.029608939 -0.20019047 -0.0054503684 -0.052371893 0.050838538 0.04958126 -0.08683476 -0.07772581 0.15289019 -0.014102695 -0.044640653 0.12750523 0.10798017 0.080998085 -0.0090767685 -0.051095046 -0.1242548 -0.06250261 0.13485995 -0.057450563 0.07616282 -0.047667842 0.07679974 -0.001573156 -0.19480681 0.0088266665 0.08822941 0.07154776 0.088374265 0.18414491 -0.043590534 -0.11240935 -0.085986964 0.19566734 -0.04717529 -0.08473627 -0.099294454 0.12251241 -0.015375969 -0.041423712 0.11335716 0.01164868 0.008990607 0.011914912
C07D27760 -0.12718233 -0.045192834 -0.020155866 0.012895658 0.013116524 0.05855597 0.11090324 0.042668223 -0.19068627 -0.017740889 0.1413966 -0.07527268 0.051879674 0.04240889 -0.190415 -0.20949586 0.13976774 -0.0075798742 0.14103895 -0.11961817 0.05525738 -0.24868935 0.1352388 0.06925119 0.026747288 -0.13795231 0.057498768 0.171831 -0.22764495 0.13779068 -0.097527266 0.11167497 -0.11904877 -0.09744355 -0.15178886 0.017438464 -0.06280707 0.1768151 -0.035384182 -0.0049596988 -0.05592168 0.003966488 0.053166308 0.1920313 -0.09225773 0.061250627 0.07351562 -0.24300389 -0.05587326 0.06188181 0.050544377 0.11884762 0.035667986 -0.002528588 -0.081449874 0.16828424 0.07158994 -0.061148576 -0.29533008 -0.038221836 -0.02335376 0.044946104 0.02535724 -0.25448513 0.002265557 -0.1256667 0.015301876 0.06991816 0.060944706 -0.0018921053 0.122450024 -0.069114685 -0.052717432 0.06758306 0.12934138 0.06061407 -0.104318 -0.16838004 0.059166737 0.030467993 -0.0024091115 0.07017324 0.021339495 -0.08771909 -0.22409065 -0.03162046 -0.21812335 0.09719317 -0.17772867 -0.0051473416 -0.21822491 0.019731207 -0.05722582 0.077448145 -0.14927338 0.10616229 0.21488774 -0.021919752 -0.062823616 -0.09769458 -0.14915547 0.009042538 -0.05275321 0.01653062 0.029245785 0.13541666 0.17110096 0.091640934 -0.14963542 -0.061235014 0.038753513 0.09846637 0.14562653 -0.024316913 0.11158189 -0.08268313 0.114510745 0.022581607 -0.07003893 -0.1493692 -0.00454986 -0.018151505 -0.008558091 0.016535277 0.17245509 0.055926364 0.01459973 0.09238936 0.06461746 -0.062233634 0.048722215 -0.11060167 -0.0328213 0.00061769166 -0.0643549 -0.28674406 -0.06844044 -0.09975081 0.0741983 -0.015965123 -0.07411304 0.12532121 -0.026903477 -0.24283682 0.0006871376 0.065301605 -0.056453537 -0.12519349 0.028775375 0.19731702 -0.11048628 -0.19334905 -0.027953954 0.11460032 0.0762664 0.08272401 0.16528994 -0.13588157 0.016210528 0.1422888 0.07242372 0.0030928976 -0.030128105 0.15068047 0.074966215 0.10134248 0.08568629 0.09786139 -0.079036735 -0.03071486 0.0756949 -0.035858843 0.09106002 -0.1637095 0.04643507 -0.22520731 -0.036444996 -0.12276986 0.11310771 -0.065724425 -0.069600664 -0.020915352 -0.06954873 0.24686727 0.027912458 -0.20590779 0.077263616 0.01558156 -0.05468663 -0.17229496 0.10891655 0.14845988 -0.0414257 0.09371045 -0.029942565 -0.029737085 -0.13005544 -0.07919634 -0.07436717 0.11609703 0.018501114 -0.0037965341 0.03346045 0.096377335 0.13116753 0.10671064 0.19743252 0.009200265 0.046405688 -0.10573031 -0.05011546 -0.048641596 -0.11623041 -0.05521862 -0.022432761 -0.006810503 0.010156367 0.016387321 0.019429699 -0.035986565 0.05316888 0.1469153 0.12424599 0.024767987 0.1228081 0.0015173714 -0.28606528 0.08100243 -0.07952141 -0.0012390811 -0.17033188 -0.06500965 -0.06581284 -0.08827711 0.15465854 -0.04764115 0.0094823325 -0.09446036 0.02122928 -0.009681127 -0.083506316 0.14517292 0.13254333 0.10889682 0.14351065 -0.09044171 0.029000936 0.05259758 0.083330706 -0.10101361 0.18363848 0.07996628 -0.0065356283 0.23334229 -0.285725 -0.020380303 0.02622968 -0.24504237 0.0038196836 -0.049043413 0.03566847 0.058409117 -0.09574496 -0.09147835 0.1789072 -0.02028136 -0.048648458 0.13474938 0.14736487 0.082358494 -0.011809129 -0.08158461 -0.12426789 -0.052912224 0.16611283 -0.06851047 0.0954994 -0.03979906 0.08304749 -0.024988867 -0.2332299 0.005589063 0.09669506 0.08254809 0.08916182 0.21008675 -0.04993503 -0.12618445 -0.09626265 0.22197297 -0.055780094 -0.10723412 -0.1261639 0.1476219 -0.023630584 -0.03781091 0.12321006 0.023451464 0.016918601 0.013909741
A61K03120 -0.1503045 -0.056231488 -0.022267774 0.011497161 0.021303082 0.08140137 0.13581468 0.04858149 -0.23776904 -0.012588964 0.16400753 -0.10453357 0.06598784 0.043998342 -0.25375122 -0.2564589 0.18493094 -0.019774137 0.18032597 -0.16053449 0.06367329 -0.2980761 0.15596679 0.07683806 0.050372377 -0.18110228 0.075220875 0.19960396 -0.2649231 0.16415401 -0.13161466 0.11988415 -0.13087748 -0.13405868 -0.18529172 0.0052279127 -0.075721085 0.2307291 -0.03403196 0.0029964056 -0.074849 -0.004529378 0.0622151 0.2359582 -0.110321775 0.080681995 0.070223 -0.2837745 -0.04875141 0.06039766 0.050316475 0.1608551 0.037877254 -0.0070720343 -0.09730963 0.21654485 0.1278081 -0.07192726 -0.3719305 -0.05006678 -0.030653978 0.04548599 0.028807525 -0.31259272 -0.0036823873 -0.16794394 0.037325043 0.1097826 0.08115344 -0.001435065 0.16081454 -0.07442547 -0.07638585 0.07023184 0.15073407 0.08283805 -0.12324842 -0.21239026 0.073593736 0.038033135 -0.025353735 0.09107947 0.03976121 -0.087513894 -0.29469362 -0.033341244 -0.24906136 0.12922032 -0.24259903 0.0033559354 -0.2644813 0.022087393 -0.06150379 0.093349665 -0.17224795 0.12215136 0.2643657 -0.0014802464 -0.08144549 -0.10586541 -0.19169901 0.021382364 -0.05244707 0.0039183847 0.014583276 0.15216212 0.20235856 0.12574087 -0.16361572 -0.06459578 0.051957086 0.12759797 0.17724575 -0.04030889 0.112497486 -0.07556654 0.14519385 0.04549879 -0.1023812 -0.18021235 -0.0032157525 -0.030159831 -0.005820751 0.0006174136 0.23775128 0.058697026 0.031774644 0.12668628 0.083406016 -0.0665593 0.03313049 -0.13469785 -0.0521563 0.0068196855 -0.07331882 -0.33645165 -0.100504875 -0.10807982 0.081752494 -0.030471226 -0.11110486 0.15929312 -0.024649054 -0.3017121 0.012661173 0.09389441 -0.040914483 -0.16318086 0.057541013 0.26161724 -0.12633087 -0.21125622 -0.026882531 0.120829836 0.10042359 0.11520161 0.1832858 -0.19043376 0.026833164 0.16289096 0.09441133 0.027172359 -0.04455985 0.20352195 0.057043165 0.10197997 0.097859085 0.106520675 -0.09114097 -0.040081922 0.11238052 -0.05539018 0.1493225 -0.19092797 0.04668199 -0.2778974 -0.043956377 -0.16437423 0.13947715 -0.0639093 -0.093882024 -0.0252566 -0.06938641 0.30508158 0.038575992 -0.27309674 0.091306224 0.02233302 -0.060012076 -0.21763505 0.1417629 0.18389697 -0.07267191 0.102692604 -0.042269684 -0.043350954 -0.15635182 -0.10408692 -0.10463062 0.14845052 0.019542793 -0.004492279 0.041392494 0.10249536 0.16309093 0.13690175 0.2513316 0.0046233195 0.054739017 -0.12317221 -0.068347804 -0.09897523 -0.14199045 -0.06874798 -0.03345024 0.009231696 0.010497993 0.01426167 0.040276755 -0.047035377 0.06758857 0.15156484 0.14876594 0.017767433 0.14439294 -0.0026759394 -0.35463378 0.09440687 -0.09814938 -0.008435248 -0.21299034 -0.07161883 -0.07622179 -0.11295127 0.21931835 -0.07354258 -0.012682922 -0.11199003 0.01237256 -0.010414412 -0.12287378 0.17724618 0.14131877 0.09931957 0.15281668 -0.099457495 0.022576004 0.065758415 0.07146399 -0.13379973 0.22195084 0.10181138 -0.030182099 0.26742175 -0.3459366 -0.0026255252 0.049276028 -0.2863632 0.0050358316 -0.08465511 0.05987132 0.08097896 -0.099814504 -0.11382717 0.21358082 -0.03170688 -0.07308797 0.19842595 0.15771453 0.107490376 0.007922627 -0.09057805 -0.15289415 -0.082471445 0.20545022 -0.08256296 0.136205 -0.040575042 0.09829257 -0.028277408 -0.28236464 0.03001406 0.09774844 0.090671934 0.12862895 0.2567488 -0.03962042 -0.15924191 -0.11934081 0.28516474 -0.07872791 -0.13175373 -0.13875537 0.17787012 -0.015735297 -0.052266013 0.15121314 0.015319317 0.0018100847 0.019068519
C07D20904 -0.10040744 -0.02301891 -0.024483817 0.0010740758 0.01944394 0.050264347 0.08952082 0.026939219 -0.14279294 -0.01285111 0.11531873 -0.060743224 0.04327523 0.029831594 -0.15063588 -0.1690025 0.12437607 -0.013390565 0.106479794 -0.1087212 0.043336824 -0.18861037 0.09855458 0.0611218 0.015650889 -0.10725571 0.038063515 0.12973793 -0.17037538 0.112489924 -0.08111545 0.082843624 -0.088637695 -0.07526934 -0.11408434 0.018167855 -0.039032757 0.13467291 -0.020387884 0.008244092 -0.045232005 0.0022724795 0.039603274 0.14510936 -0.070339404 0.05220085 0.0573035 -0.1844393 -0.031191954 0.03569845 0.039243862 0.09947236 0.022878911 -0.0067951013 -0.058330767 0.13892604 0.057645462 -0.050245896 -0.23925227 -0.03595931 -0.02459949 0.039012298 0.021088995 -0.19291992 -0.0015584556 -0.10311778 0.020038234 0.059249748 0.054694936 0.0032041613 0.0979684 -0.050168585 -0.033705004 0.052310806 0.100075185 0.045932166 -0.07952411 -0.13883862 0.04265764 0.017809033 -0.011285968 0.04566289 0.019288698 -0.06861906 -0.18747824 -0.024656499 -0.15830182 0.07608867 -0.14101076 0.009071985 -0.17089391 0.028224122 -0.051584013 0.0667164 -0.1164981 0.08143925 0.16946793 -0.009256165 -0.05097926 -0.07253084 -0.13104416 0.017028844 -0.030835802 0.0055449135 0.019859774 0.10496294 0.1294371 0.07421648 -0.110135175 -0.04531905 0.03243285 0.08483995 0.10727807 -0.020858096 0.078141674 -0.058480356 0.08427627 0.020461394 -0.056126043 -0.12040674 -0.008380278 -0.0057024467 -0.005616683 0.0048613786 0.14502366 0.05023736 0.016150005 0.07769489 0.049582362 -0.04022648 0.04411029 -0.084617704 -0.026091505 -0.007225568 -0.039648883 -0.2173324 -0.056243658 -0.07291612 0.055224035 -0.004997097 -0.062109157 0.09390026 -0.013193602 -0.19338664 0.008004905 0.05696338 -0.04151286 -0.09943998 0.033044707 0.16139928 -0.09069126 -0.13878296 -0.018898739 0.0919667 0.058956917 0.06814082 0.12303549 -0.11028026 0.016517831 0.1097929 0.053697646 0.015389484 -0.021073408 0.1274123 0.05683135 0.06994237 0.06790365 0.0719279 -0.06644233 -0.020663913 0.05742579 -0.02416761 0.08646991 -0.12439457 0.03634635 -0.17833793 -0.022038188 -0.095257245 0.08880939 -0.04429401 -0.054271832 -0.021797787 -0.060119547 0.19167712 0.017748479 -0.16638501 0.06725695 0.0152052585 -0.03936627 -0.13385957 0.076431915 0.11322329 -0.042939954 0.07763211 -0.03332767 -0.024847688 -0.10260372 -0.059867214 -0.06619774 0.08629676 0.021920936 0.0031439709 0.027746761 0.06555521 0.101515226 0.08130136 0.1425202 0.009174501 0.03372386 -0.08310664 -0.033220284 -0.05127021 -0.09435452 -0.048268426 -0.020607624 -0.0076886453 -0.0015075239 0.017828548 0.023858951 -0.029061105 0.051367547 0.09923492 0.099758185 0.015549458 0.09257636 0.0053448523 -0.21048684 0.05944957 -0.06482437 7.337721e-05 -0.12603895 -0.056465626 -0.057174508 -0.08035769 0.124260046 -0.04305596 -0.0021316092 -0.08348596 0.011233236 -0.003988726 -0.07543777 0.111246176 0.10168804 0.0769574 0.11167149 -0.06541248 0.021933898 0.04128735 0.056989226 -0.076660536 0.14044617 0.06659646 -0.018403377 0.1716048 -0.22602424 -0.019052712 0.034482777 -0.18957093 -0.00646705 -0.030988373 0.031445857 0.04625151 -0.0719507 -0.064907275 0.13465132 -0.01670754 -0.04200446 0.10986748 0.104061596 0.07069375 -0.002078478 -0.052890502 -0.10629591 -0.045038585 0.12964329 -0.051304504 0.070022106 -0.031761892 0.064698674 -0.004372823 -0.18476936 0.012813646 0.07069445 0.06277492 0.075872876 0.15753059 -0.0360004 -0.09589117 -0.07708862 0.17499363 -0.05273091 -0.08355006 -0.09251806 0.11335139 -0.01869753 -0.03711656 0.090840764 0.010285918 0.01002438 0.011122819
A61K031785 -0.1269216 -0.038418766 -0.024493298 0.012383088 0.009019115 0.103647724 0.13852867 0.054062136 -0.20865123 -0.031694815 0.1990905 -0.07349242 0.047848895 0.04525302 -0.22872783 -0.25129974 0.17771344 -5.643467e-05 0.16028848 -0.157383 0.06468468 -0.27083495 0.1529916 0.07782266 0.026158594 -0.14871521 0.039926086 0.1800042 -0.24758463 0.1592472 -0.12284597 0.1288081 -0.12912825 -0.12508915 -0.1887367 0.008977965 -0.058156822 0.19908679 -0.027216645 -0.011478818 -0.052745484 0.0008339616 0.043556027 0.22212227 -0.11560997 0.077798456 0.08757993 -0.2690262 -0.039148696 0.06154248 0.06127181 0.1304514 0.043013703 -0.015017254 -0.09423838 0.18233775 0.08677715 -0.08265422 -0.37357968 -0.03683366 -0.029468859 0.04455481 0.042530153 -0.27889648 0.007865761 -0.1689272 0.021037892 0.09032015 0.053380724 0.005522921 0.17292137 -0.059035826 -0.04497951 0.049016193 0.14412329 0.069272116 -0.08803908 -0.19078523 0.07527541 0.019462593 -0.009529597 0.08984927 0.031509653 -0.1022802 -0.26653185 -0.02240084 -0.24098238 0.12778057 -0.21943954 -0.014894866 -0.25208545 0.051460654 -0.06718128 0.09647438 -0.18238086 0.12226352 0.26430985 -0.008645412 -0.06082948 -0.103945464 -0.18784326 0.02518062 -0.04360493 0.028333727 0.05069638 0.1838112 0.19485053 0.09653229 -0.16287696 -0.0546294 0.024234373 0.122801274 0.14597496 -0.040265545 0.110352315 -0.0899696 0.12961243 0.024926273 -0.077848725 -0.16836031 -0.004840663 0.0012525555 -0.010498122 0.029125884 0.20538045 0.06764743 0.025942553 0.11650414 0.06584585 -0.06756899 0.05169227 -0.14021271 -0.022623526 0.01135657 -0.059618358 -0.2993601 -0.056021046 -0.09990343 0.08278291 -0.00095025846 -0.09218926 0.1594214 -0.021077497 -0.27036473 0.0083785765 0.107689016 -0.025546357 -0.13279547 0.054026663 0.23979256 -0.11811619 -0.21339393 -0.01631844 0.12964165 0.10771799 0.103728145 0.1894735 -0.17904817 -0.017520731 0.13505694 0.088248625 0.031138236 -0.035418745 0.18514358 0.109833606 0.12624441 0.08183538 0.130791 -0.09606703 -0.03480024 0.097737804 -0.065341204 0.11547473 -0.16045505 0.05388962 -0.24617958 -0.037871458 -0.13833132 0.14185394 -0.049255915 -0.1022549 -0.018770589 -0.07812507 0.2838767 0.005861274 -0.2566678 0.073138654 0.03374579 -0.06211269 -0.1923906 0.12171355 0.17472868 -0.06071062 0.085984685 -0.04651811 -0.047343485 -0.17055325 -0.08020732 -0.12552276 0.10353991 0.021569896 -0.020766808 0.03393636 0.08899004 0.1612046 0.11327967 0.2344224 -0.0090352055 0.051227476 -0.10909261 -0.043586306 -0.07315689 -0.13439482 -0.065564066 -0.021099346 -0.012775082 0.016639693 0.051878612 0.013927748 -0.052420236 0.051981032 0.1436282 0.14593314 0.039580602 0.11565205 0.021713873 -0.31166157 0.11070366 -0.09905646 0.004275424 -0.1925621 -0.05896802 -0.08289897 -0.1043262 0.21232007 -0.040801033 -0.02365162 -0.13627155 0.027523614 -0.01476548 -0.09460861 0.17247413 0.15950441 0.10697485 0.16612853 -0.09329891 0.04346998 0.050209787 0.10323213 -0.111933716 0.19896373 0.10650722 -0.0014554365 0.26763272 -0.32855773 -0.030015644 0.052560966 -0.26468527 0.009820622 -0.033480186 0.06503121 0.05907624 -0.09591504 -0.10996986 0.20928131 -0.040166672 -0.056964315 0.16107585 0.15993422 0.09517269 -0.0015500978 -0.08012102 -0.14567572 -0.060737513 0.19292665 -0.066842996 0.10103776 -0.0508156 0.10485304 -0.012195374 -0.28422543 0.0031426148 0.11561459 0.098308176 0.11877817 0.24797948 -0.053422604 -0.14056322 -0.11357215 0.26174954 -0.07414854 -0.113985345 -0.13531353 0.19178505 -0.033286843 -0.06231783 0.14165859 0.013896223 0.011263162 0.019194908
